//Numpy array shape [16, 16]
//Min -0.949218750000
//Max 0.931640625000
//Number of zeros 0

#ifndef W18_H_
#define W18_H_

#ifndef __SYNTHESIS__
weight18_t w18[256];
#else
weight18_t w18[256] = {-0.298828125, -0.197265625, 0.386718750, 0.316406250, -0.291015625, -0.429687500, -0.306640625, 0.322265625, -0.273437500, -0.488281250, 0.210937500, -0.388671875, -0.330078125, 0.310546875, 0.111328125, 0.324218750, -0.218750000, -0.148437500, 0.128906250, -0.640625000, 0.175781250, -0.015625000, 0.281250000, -0.605468750, 0.333984375, 0.562500000, -0.240234375, 0.220703125, -0.312500000, 0.123046875, -0.117187500, 0.466796875, 0.318359375, 0.072265625, -0.390625000, 0.076171875, 0.500000000, -0.076171875, -0.544921875, -0.244140625, 0.019531250, -0.486328125, 0.314453125, 0.259765625, 0.025390625, 0.058593750, 0.390625000, -0.193359375, 0.062500000, -0.025390625, 0.107421875, -0.535156250, 0.105468750, -0.068359375, 0.208984375, -0.742187500, -0.099609375, 0.550781250, 0.818359375, -0.128906250, 0.531250000, -0.003906250, 0.033203125, -0.787109375, 0.107421875, 0.208984375, 0.298828125, 0.166015625, -0.441406250, 0.011718750, 0.363281250, 0.332031250, -0.683593750, -0.384765625, -0.048828125, 0.380859375, -0.125000000, 0.107421875, -0.574218750, -0.039062500, -0.507812500, -0.210937500, 0.343750000, -0.259765625, -0.404296875, -0.722656250, -0.226562500, -0.025390625, -0.037109375, 0.326171875, 0.242187500, -0.197265625, -0.378906250, -0.296875000, -0.160156250, -0.146484375, -0.523437500, -0.142578125, -0.335937500, -0.208984375, 0.546875000, -0.263671875, 0.087890625, -0.386718750, 0.445312500, 0.318359375, 0.132812500, 0.318359375, 0.574218750, -0.154296875, 0.439453125, -0.509765625, 0.265625000, 0.476562500, -0.025390625, -0.539062500, 0.488281250, -0.294921875, 0.349609375, -0.792968750, -0.074218750, 0.025390625, 0.494140625, 0.458984375, 0.050781250, -0.400390625, 0.167968750, -0.300781250, -0.199218750, -0.552734375, 0.755859375, -0.033203125, -0.621093750, 0.226562500, -0.001953125, 0.099609375, -0.433593750, 0.681640625, -0.154296875, -0.119140625, -0.791015625, -0.408203125, -0.607421875, 0.371093750, -0.523437500, -0.169921875, -0.056640625, -0.005859375, -0.185546875, 0.414062500, 0.826171875, 0.203125000, 0.013671875, 0.291015625, -0.259765625, -0.109375000, 0.316406250, 0.144531250, -0.613281250, 0.431640625, 0.109375000, 0.333984375, -0.113281250, 0.931640625, -0.478515625, 0.583984375, 0.128906250, 0.861328125, 0.181640625, -0.261718750, -0.767578125, 0.119140625, 0.201171875, -0.080078125, -0.595703125, 0.042968750, 0.576171875, 0.312500000, -0.625000000, 0.611328125, 0.089843750, 0.609375000, 0.146484375, 0.556640625, -0.363281250, -0.677734375, 0.087890625, 0.042968750, 0.425781250, -0.240234375, 0.328125000, -0.261718750, -0.126953125, -0.074218750, 0.464843750, 0.007812500, -0.277343750, 0.128906250, -0.230468750, 0.708984375, 0.515625000, -0.013671875, -0.949218750, 0.531250000, -0.068359375, -0.214843750, 0.390625000, 0.123046875, 0.230468750, -0.087890625, -0.472656250, -0.201171875, 0.623046875, 0.435546875, -0.130859375, 0.044921875, 0.658203125, 0.130859375, -0.400390625, -0.634765625, 0.406250000, -0.164062500, 0.757812500, 0.580078125, -0.156250000, -0.623046875, 0.265625000, 0.230468750, 0.238281250, -0.083984375, -0.232421875, 0.148437500, 0.359375000, 0.152343750, 0.044921875, -0.785156250, -0.292968750, 0.173828125, 0.367187500, 0.119140625, 0.681640625, 0.689453125, 0.203125000, -0.103515625, -0.250000000, -0.625000000, -0.496093750, -0.578125000, -0.208984375, -0.099609375, 0.748046875, 0.332031250, -0.470703125, -0.074218750, -0.275390625, 0.474609375};

#endif

#endif
