//Numpy array shape [16, 10]
//Min -2.082031250000
//Max 0.855468750000
//Number of zeros 0

#ifndef W21_H_
#define W21_H_

#ifndef __SYNTHESIS__
weight21_t w21[160];
#else
weight21_t w21[160] = {0.619140625, -0.125000000, -0.472656250, 0.595703125, -1.017578125, -1.966796875, 0.173828125, 0.257812500, -1.031250000, 0.441406250, 0.482421875, -0.220703125, -1.152343750, 0.599609375, -1.775390625, -1.052734375, 0.380859375, 0.011718750, -1.787109375, -0.613281250, -1.927734375, 0.441406250, -0.277343750, 0.177734375, 0.498046875, 0.238281250, -0.896484375, -1.859375000, 0.335937500, 0.224609375, -0.476562500, -1.746093750, -1.095703125, -0.074218750, -1.996093750, 0.337890625, 0.414062500, 0.369140625, 0.464843750, 0.443359375, 0.689453125, -0.138671875, 0.740234375, -0.312500000, -1.285156250, -1.056640625, -1.419921875, 0.410156250, -0.523437500, -1.812500000, -1.265625000, -0.775390625, -1.371093750, -1.210937500, -1.107421875, 0.777343750, 0.654296875, 0.587890625, -0.193359375, 0.437500000, -0.810546875, -0.021484375, 0.150390625, 0.111328125, 0.634765625, 0.804687500, 0.724609375, -1.373046875, -1.427734375, -0.509765625, -1.484375000, -0.978515625, -1.396484375, -1.087890625, -1.585937500, 0.464843750, 0.425781250, 0.412109375, 0.539062500, 0.406250000, 0.070312500, -0.058593750, 0.824218750, -0.115234375, -0.609375000, -0.343750000, -0.673828125, 0.855468750, 0.484375000, -1.001953125, -1.791015625, 0.519531250, 0.332031250, 0.001953125, 0.582031250, 0.230468750, -1.138671875, -1.181640625, -0.498046875, 0.025390625, 0.269531250, 0.251953125, 0.216796875, 0.263671875, 0.234375000, -2.082031250, -0.138671875, -1.015625000, -0.382812500, 0.025390625, 0.455078125, 0.724609375, -0.328125000, 0.447265625, -1.230468750, 0.337890625, 0.212890625, -0.478515625, -0.833984375, -1.339843750, 0.564453125, -0.535156250, 0.734375000, -0.289062500, -0.558593750, -0.283203125, 0.794921875, 0.689453125, -0.792968750, -0.771484375, -0.136718750, 0.398437500, 0.390625000, -0.322265625, 0.121093750, 0.226562500, 0.328125000, -0.019531250, -0.179687500, -0.416015625, 0.261718750, -0.074218750, 0.298828125, -0.345703125, -1.205078125, -1.724609375, -0.595703125, 0.207031250, -0.093750000, -0.259765625, -1.564453125, -0.792968750, -0.994140625, 0.208984375, 0.457031250, 0.503906250, -0.681640625, 0.341796875, 0.375000000, 0.410156250};

#endif

#endif
