//Numpy array shape [3, 3, 8, 8]
//Min -0.529296875000
//Max 0.384765625000
//Number of zeros 0

#ifndef W7_H_
#define W7_H_

#ifndef __SYNTHESIS__
weight7_t w7[576];
#else
weight7_t w7[576] = {-0.095703125, -0.025390625, -0.007812500, -0.056640625, -0.029296875, 0.234375000, 0.080078125, 0.148437500, 0.085937500, 0.072265625, -0.087890625, 0.101562500, -0.013671875, 0.109375000, 0.218750000, -0.029296875, -0.111328125, 0.212890625, -0.019531250, 0.222656250, -0.296875000, -0.318359375, -0.152343750, 0.140625000, -0.025390625, 0.146484375, -0.232421875, 0.160156250, 0.082031250, 0.167968750, -0.103515625, 0.017578125, 0.001953125, 0.054687500, 0.048828125, 0.285156250, 0.050781250, -0.154296875, -0.097656250, -0.146484375, 0.062500000, -0.095703125, -0.011718750, -0.181640625, 0.289062500, -0.046875000, -0.044921875, -0.044921875, 0.121093750, 0.132812500, 0.162109375, 0.125000000, 0.080078125, -0.152343750, 0.119140625, 0.068359375, -0.103515625, 0.013671875, -0.099609375, 0.027343750, 0.126953125, -0.005859375, -0.039062500, -0.044921875, 0.107421875, 0.091796875, -0.121093750, -0.048828125, -0.156250000, 0.042968750, -0.091796875, 0.183593750, 0.072265625, -0.023437500, 0.019531250, -0.109375000, -0.123046875, -0.093750000, 0.089843750, -0.070312500, 0.027343750, -0.056640625, 0.226562500, -0.152343750, -0.257812500, 0.177734375, -0.208984375, 0.035156250, -0.234375000, 0.259765625, -0.019531250, 0.064453125, -0.023437500, 0.021484375, 0.132812500, 0.033203125, 0.146484375, 0.214843750, -0.087890625, -0.095703125, -0.166015625, -0.103515625, -0.113281250, -0.105468750, 0.312500000, 0.294921875, -0.181640625, -0.044921875, 0.214843750, 0.009765625, 0.171875000, -0.214843750, 0.197265625, 0.345703125, -0.150390625, -0.058593750, -0.019531250, 0.013671875, 0.179687500, 0.095703125, 0.224609375, 0.273437500, -0.113281250, 0.113281250, -0.005859375, -0.140625000, -0.078125000, -0.019531250, -0.125000000, 0.091796875, 0.023437500, -0.373046875, -0.173828125, 0.160156250, -0.330078125, -0.152343750, -0.083984375, 0.203125000, -0.220703125, 0.035156250, -0.072265625, -0.001953125, -0.085937500, 0.076171875, -0.017578125, 0.076171875, 0.115234375, 0.023437500, -0.271484375, -0.054687500, 0.025390625, 0.126953125, 0.203125000, 0.087890625, -0.089843750, -0.031250000, 0.056640625, 0.160156250, 0.031250000, -0.154296875, 0.074218750, -0.142578125, -0.162109375, -0.019531250, 0.082031250, -0.083984375, -0.115234375, -0.113281250, -0.121093750, -0.087890625, -0.085937500, -0.082031250, 0.230468750, -0.099609375, -0.132812500, -0.250000000, -0.015625000, 0.087890625, -0.031250000, 0.031250000, -0.177734375, 0.097656250, -0.166015625, 0.029296875, 0.191406250, 0.072265625, -0.087890625, 0.138671875, 0.099609375, 0.130859375, -0.320312500, -0.031250000, -0.132812500, 0.103515625, -0.074218750, -0.171875000, -0.072265625, 0.222656250, -0.173828125, -0.136718750, -0.097656250, 0.031250000, -0.228515625, -0.013671875, -0.123046875, 0.035156250, 0.041015625, -0.074218750, -0.039062500, -0.091796875, -0.185546875, 0.126953125, 0.064453125, -0.039062500, -0.056640625, -0.140625000, -0.007812500, 0.115234375, -0.009765625, -0.271484375, -0.166015625, -0.125000000, -0.060546875, -0.109375000, -0.011718750, -0.128906250, 0.074218750, -0.105468750, -0.146484375, 0.167968750, -0.074218750, 0.072265625, 0.105468750, -0.230468750, 0.246093750, -0.093750000, -0.208984375, -0.062500000, -0.345703125, -0.187500000, 0.281250000, -0.193359375, -0.212890625, 0.292968750, 0.166015625, -0.039062500, 0.021484375, 0.369140625, -0.066406250, 0.052734375, 0.173828125, -0.046875000, 0.019531250, -0.023437500, -0.210937500, 0.068359375, -0.449218750, 0.023437500, -0.208984375, 0.097656250, -0.013671875, 0.175781250, 0.097656250, -0.089843750, 0.083984375, 0.171875000, 0.238281250, 0.003906250, -0.246093750, 0.166015625, -0.517578125, -0.228515625, -0.105468750, 0.062500000, -0.035156250, -0.089843750, 0.179687500, -0.251953125, -0.052734375, 0.089843750, -0.136718750, -0.125000000, -0.162109375, 0.007812500, -0.265625000, -0.216796875, -0.091796875, -0.277343750, 0.019531250, -0.179687500, 0.191406250, 0.013671875, -0.201171875, -0.103515625, -0.130859375, 0.035156250, 0.187500000, -0.021484375, -0.121093750, -0.230468750, -0.060546875, 0.132812500, -0.333984375, -0.263671875, -0.171875000, -0.181640625, -0.037109375, -0.099609375, 0.152343750, 0.027343750, -0.080078125, 0.355468750, -0.126953125, 0.035156250, -0.048828125, 0.068359375, -0.164062500, -0.031250000, -0.101562500, 0.093750000, -0.158203125, -0.080078125, 0.253906250, -0.464843750, -0.001953125, 0.273437500, -0.039062500, -0.080078125, -0.011718750, 0.136718750, 0.259765625, 0.181640625, -0.029296875, -0.140625000, -0.136718750, 0.083984375, -0.117187500, 0.128906250, -0.087890625, 0.068359375, -0.044921875, -0.054687500, -0.212890625, 0.134765625, 0.011718750, -0.039062500, 0.013671875, 0.091796875, 0.068359375, -0.035156250, 0.152343750, -0.103515625, -0.306640625, -0.173828125, 0.082031250, -0.214843750, -0.123046875, 0.175781250, -0.044921875, 0.138671875, -0.179687500, -0.068359375, 0.314453125, 0.068359375, -0.066406250, 0.109375000, -0.080078125, -0.210937500, 0.228515625, 0.089843750, 0.007812500, -0.060546875, -0.076171875, -0.140625000, 0.193359375, 0.191406250, 0.232421875, -0.054687500, -0.089843750, -0.021484375, 0.181640625, -0.175781250, 0.150390625, 0.384765625, -0.058593750, -0.070312500, 0.023437500, -0.005859375, -0.142578125, -0.302734375, 0.003906250, -0.064453125, 0.009765625, 0.140625000, -0.107421875, -0.210937500, -0.238281250, -0.308593750, -0.158203125, -0.152343750, -0.119140625, -0.093750000, -0.025390625, 0.083984375, -0.234375000, -0.093750000, -0.082031250, -0.294921875, -0.376953125, 0.097656250, 0.082031250, -0.130859375, 0.099609375, -0.121093750, 0.052734375, 0.056640625, -0.041015625, -0.337890625, 0.005859375, 0.093750000, 0.035156250, 0.220703125, 0.017578125, -0.101562500, -0.271484375, 0.138671875, -0.197265625, -0.033203125, -0.076171875, 0.042968750, -0.146484375, -0.031250000, 0.107421875, 0.009765625, -0.160156250, -0.031250000, -0.082031250, -0.230468750, 0.160156250, 0.207031250, 0.103515625, -0.132812500, -0.218750000, 0.082031250, -0.128906250, 0.183593750, 0.039062500, -0.208984375, -0.257812500, 0.060546875, 0.292968750, -0.107421875, -0.062500000, -0.193359375, -0.121093750, 0.046875000, -0.023437500, 0.250000000, 0.052734375, 0.031250000, -0.087890625, -0.091796875, 0.080078125, -0.017578125, -0.005859375, -0.029296875, -0.005859375, 0.171875000, -0.082031250, -0.119140625, 0.113281250, 0.109375000, 0.203125000, -0.197265625, -0.037109375, 0.042968750, -0.097656250, -0.031250000, -0.068359375, -0.171875000, -0.074218750, -0.123046875, -0.015625000, 0.150390625, -0.003906250, 0.150390625, -0.080078125, -0.095703125, 0.001953125, 0.083984375, -0.044921875, -0.007812500, -0.095703125, 0.164062500, 0.154296875, 0.181640625, -0.185546875, -0.062500000, 0.011718750, -0.529296875, -0.001953125, -0.052734375, -0.019531250, -0.226562500, 0.009765625, 0.099609375, -0.326171875, 0.107421875, -0.291015625, 0.060546875, 0.029296875, -0.218750000, -0.101562500, -0.250000000, 0.025390625, -0.060546875, -0.193359375, -0.132812500, -0.095703125, 0.054687500, 0.130859375, 0.207031250, -0.101562500, -0.111328125, -0.031250000, 0.191406250, 0.183593750, -0.152343750, -0.275390625, 0.279296875, -0.035156250, 0.056640625, -0.160156250, -0.246093750, 0.007812500, -0.267578125, 0.068359375, -0.021484375, -0.042968750, -0.003906250, 0.166015625, -0.021484375, -0.062500000, 0.041015625, 0.095703125, -0.283203125, -0.140625000, -0.099609375, -0.009765625, -0.144531250, 0.054687500, -0.005859375, -0.193359375, -0.222656250, -0.148437500, 0.066406250, 0.050781250, -0.005859375, 0.019531250, 0.095703125, -0.269531250, 0.050781250, -0.048828125, 0.128906250, 0.042968750, -0.367187500, 0.009765625, 0.099609375, -0.009765625, 0.042968750, -0.175781250, -0.035156250, -0.089843750, -0.001953125, -0.039062500, -0.093750000};

#endif

#endif
