//Numpy array shape [3, 3, 8, 16]
//Min -0.480468750000
//Max 0.380859375000
//Number of zeros 5

#ifndef W7_H_
#define W7_H_

#ifndef __SYNTHESIS__
weight7_t w7[1152];
#else
weight7_t w7[1152] = {-0.082031250, 0.076171875, -0.101562500, -0.046875000, 0.031250000, 0.191406250, 0.154296875, -0.056640625, -0.169921875, -0.048828125, -0.212890625, 0.169921875, 0.097656250, -0.111328125, 0.128906250, -0.001953125, -0.017578125, -0.085937500, -0.103515625, 0.068359375, 0.216796875, -0.021484375, 0.013671875, -0.072265625, 0.162109375, 0.017578125, 0.150390625, -0.132812500, -0.042968750, 0.058593750, 0.097656250, 0.023437500, 0.021484375, -0.162109375, 0.148437500, -0.082031250, -0.167968750, -0.101562500, 0.070312500, -0.050781250, 0.087890625, 0.041015625, 0.068359375, 0.009765625, 0.148437500, -0.134765625, -0.052734375, -0.125000000, 0.160156250, -0.201171875, -0.019531250, -0.091796875, -0.044921875, 0.134765625, 0.107421875, 0.101562500, 0.115234375, 0.056640625, -0.025390625, 0.027343750, 0.003906250, 0.195312500, -0.009765625, -0.042968750, -0.041015625, -0.189453125, 0.050781250, 0.001953125, 0.001953125, -0.052734375, 0.021484375, 0.363281250, 0.160156250, 0.103515625, 0.158203125, -0.160156250, -0.011718750, 0.068359375, 0.111328125, 0.169921875, 0.117187500, 0.134765625, -0.113281250, 0.091796875, 0.056640625, 0.085937500, 0.156250000, 0.066406250, 0.056640625, 0.046875000, 0.015625000, 0.021484375, -0.019531250, 0.123046875, 0.025390625, 0.156250000, -0.013671875, 0.001953125, -0.197265625, 0.087890625, -0.066406250, 0.042968750, -0.033203125, -0.021484375, 0.041015625, 0.062500000, -0.046875000, 0.099609375, -0.007812500, 0.117187500, 0.121093750, -0.070312500, -0.189453125, 0.144531250, 0.033203125, 0.269531250, 0.134765625, -0.033203125, 0.210937500, 0.226562500, 0.091796875, -0.175781250, -0.330078125, 0.291015625, -0.007812500, 0.001953125, -0.218750000, 0.060546875, -0.082031250, 0.013671875, -0.041015625, -0.113281250, 0.009765625, 0.164062500, -0.126953125, -0.035156250, 0.099609375, 0.060546875, -0.281250000, 0.005859375, 0.179687500, 0.148437500, -0.060546875, -0.222656250, 0.175781250, 0.091796875, 0.187500000, 0.199218750, -0.011718750, 0.167968750, 0.089843750, 0.039062500, 0.130859375, 0.156250000, 0.019531250, 0.087890625, 0.056640625, -0.099609375, 0.085937500, 0.058593750, -0.068359375, -0.097656250, 0.152343750, -0.138671875, -0.078125000, -0.019531250, -0.027343750, 0.044921875, -0.171875000, 0.132812500, 0.007812500, -0.078125000, 0.148437500, 0.177734375, 0.015625000, -0.091796875, -0.195312500, 0.167968750, 0.240234375, -0.074218750, 0.066406250, -0.142578125, 0.140625000, -0.050781250, 0.150390625, 0.060546875, -0.042968750, 0.121093750, -0.015625000, -0.052734375, 0.025390625, 0.044921875, 0.023437500, -0.322265625, -0.152343750, -0.089843750, -0.121093750, -0.039062500, -0.074218750, -0.228515625, -0.037109375, 0.105468750, 0.181640625, 0.062500000, 0.074218750, 0.068359375, 0.277343750, 0.097656250, 0.130859375, 0.052734375, 0.328125000, 0.128906250, 0.093750000, -0.070312500, 0.173828125, 0.175781250, -0.056640625, 0.062500000, -0.160156250, 0.146484375, -0.107421875, 0.160156250, 0.025390625, 0.013671875, -0.064453125, 0.039062500, 0.046875000, -0.005859375, -0.166015625, 0.015625000, -0.027343750, 0.048828125, -0.078125000, 0.101562500, -0.197265625, 0.140625000, 0.041015625, 0.128906250, 0.097656250, 0.005859375, 0.119140625, -0.097656250, 0.058593750, -0.117187500, -0.037109375, 0.019531250, -0.009765625, -0.060546875, 0.021484375, -0.134765625, 0.144531250, -0.099609375, -0.126953125, -0.031250000, 0.115234375, -0.017578125, 0.003906250, -0.123046875, 0.052734375, -0.091796875, 0.132812500, 0.123046875, -0.099609375, 0.152343750, -0.261718750, -0.072265625, -0.191406250, -0.064453125, 0.085937500, -0.326171875, 0.234375000, 0.380859375, -0.128906250, -0.261718750, -0.480468750, -0.205078125, 0.093750000, -0.207031250, 0.236328125, -0.132812500, -0.224609375, 0.111328125, -0.134765625, 0.033203125, 0.238281250, -0.060546875, 0.304687500, 0.164062500, -0.166015625, 0.037109375, -0.068359375, 0.031250000, -0.076171875, -0.091796875, 0.035156250, 0.074218750, 0.033203125, 0.041015625, -0.171875000, -0.099609375, -0.072265625, 0.044921875, -0.208984375, -0.087890625, -0.015625000, -0.087890625, -0.050781250, 0.111328125, -0.076171875, 0.048828125, -0.134765625, -0.064453125, -0.048828125, -0.183593750, 0.093750000, -0.115234375, 0.037109375, 0.205078125, -0.066406250, -0.048828125, 0.035156250, -0.103515625, -0.060546875, 0.123046875, 0.041015625, 0.179687500, -0.115234375, 0.076171875, 0.210937500, 0.169921875, -0.072265625, -0.046875000, -0.005859375, 0.177734375, 0.085937500, -0.218750000, 0.140625000, 0.042968750, -0.001953125, 0.099609375, 0.093750000, 0.115234375, -0.052734375, -0.203125000, 0.109375000, 0.171875000, 0.132812500, -0.025390625, -0.142578125, 0.031250000, -0.115234375, -0.007812500, -0.072265625, 0.060546875, -0.015625000, -0.054687500, -0.138671875, 0.105468750, 0.029296875, -0.140625000, -0.019531250, 0.039062500, -0.023437500, -0.121093750, 0.023437500, 0.150390625, 0.003906250, -0.097656250, 0.121093750, -0.144531250, 0.126953125, -0.115234375, 0.052734375, 0.134765625, -0.152343750, -0.130859375, 0.287109375, 0.125000000, 0.140625000, 0.142578125, 0.111328125, -0.117187500, 0.072265625, 0.070312500, -0.060546875, 0.097656250, -0.072265625, 0.060546875, 0.052734375, -0.070312500, -0.111328125, -0.197265625, -0.146484375, -0.119140625, -0.003906250, -0.117187500, -0.064453125, 0.072265625, 0.031250000, -0.023437500, 0.123046875, -0.062500000, -0.107421875, 0.121093750, -0.044921875, -0.011718750, 0.072265625, -0.160156250, 0.115234375, 0.058593750, 0.046875000, -0.160156250, 0.160156250, 0.009765625, -0.013671875, 0.105468750, 0.175781250, 0.208984375, 0.042968750, -0.224609375, 0.048828125, -0.013671875, 0.005859375, 0.148437500, 0.328125000, 0.003906250, 0.294921875, -0.132812500, 0.095703125, -0.013671875, -0.033203125, 0.343750000, -0.267578125, -0.070312500, 0.164062500, 0.005859375, 0.095703125, 0.029296875, -0.121093750, 0.099609375, 0.076171875, -0.054687500, -0.123046875, -0.150390625, 0.076171875, 0.138671875, -0.076171875, -0.064453125, -0.115234375, -0.027343750, 0.144531250, -0.001953125, 0.001953125, 0.146484375, -0.097656250, -0.160156250, 0.111328125, 0.070312500, -0.082031250, -0.048828125, 0.162109375, 0.125000000, 0.052734375, -0.080078125, 0.240234375, 0.031250000, -0.056640625, 0.058593750, 0.083984375, -0.138671875, 0.085937500, 0.013671875, 0.181640625, -0.021484375, 0.025390625, 0.027343750, 0.140625000, 0.021484375, 0.007812500, -0.103515625, -0.218750000, -0.103515625, 0.355468750, -0.179687500, -0.130859375, -0.060546875, 0.263671875, -0.080078125, -0.119140625, -0.275390625, 0.078125000, -0.050781250, -0.179687500, -0.062500000, 0.072265625, -0.121093750, -0.080078125, -0.150390625, 0.326171875, -0.123046875, -0.183593750, -0.062500000, 0.052734375, 0.048828125, -0.246093750, 0.117187500, -0.033203125, -0.005859375, 0.117187500, 0.121093750, -0.132812500, 0.019531250, -0.138671875, -0.060546875, -0.054687500, 0.148437500, 0.187500000, 0.072265625, 0.119140625, -0.007812500, -0.064453125, 0.126953125, -0.103515625, 0.044921875, 0.156250000, 0.029296875, 0.054687500, 0.044921875, 0.000000000, -0.060546875, 0.105468750, 0.058593750, 0.058593750, -0.052734375, 0.070312500, -0.076171875, 0.101562500, 0.162109375, -0.160156250, -0.164062500, -0.015625000, -0.021484375, -0.089843750, 0.142578125, 0.009765625, 0.074218750, 0.029296875, 0.101562500, 0.068359375, -0.048828125, -0.019531250, 0.029296875, -0.162109375, 0.027343750, 0.068359375, -0.179687500, -0.076171875, 0.087890625, -0.009765625, -0.130859375, -0.259765625, -0.044921875, 0.044921875, -0.166015625, -0.007812500, -0.062500000, -0.244140625, -0.015625000, -0.185546875, -0.132812500, -0.109375000, -0.205078125, 0.009765625, -0.248046875, -0.179687500, -0.138671875, -0.099609375, -0.173828125, 0.064453125, 0.066406250, -0.076171875, -0.041015625, 0.050781250, 0.091796875, 0.089843750, 0.070312500, 0.119140625, -0.042968750, 0.058593750, 0.023437500, -0.009765625, -0.164062500, 0.109375000, 0.097656250, -0.011718750, 0.046875000, 0.058593750, 0.113281250, -0.023437500, -0.017578125, 0.064453125, -0.074218750, 0.070312500, 0.082031250, -0.248046875, 0.121093750, -0.011718750, 0.060546875, 0.285156250, -0.050781250, -0.095703125, 0.027343750, -0.058593750, -0.080078125, 0.046875000, -0.164062500, 0.337890625, -0.103515625, -0.136718750, 0.046875000, -0.132812500, -0.060546875, -0.023437500, 0.068359375, -0.119140625, -0.011718750, -0.037109375, 0.218750000, -0.062500000, 0.105468750, 0.001953125, -0.281250000, -0.140625000, 0.140625000, 0.292968750, 0.123046875, 0.154296875, 0.152343750, -0.121093750, -0.048828125, 0.072265625, -0.109375000, 0.347656250, 0.125000000, 0.248046875, 0.164062500, -0.236328125, -0.107421875, -0.027343750, -0.052734375, 0.003906250, -0.021484375, -0.052734375, -0.199218750, -0.078125000, -0.050781250, 0.070312500, -0.085937500, 0.199218750, -0.005859375, 0.074218750, -0.113281250, -0.205078125, -0.083984375, -0.027343750, -0.025390625, -0.011718750, -0.074218750, 0.060546875, -0.177734375, -0.128906250, 0.113281250, 0.181640625, -0.085937500, -0.033203125, -0.033203125, 0.242187500, 0.029296875, -0.169921875, -0.068359375, 0.031250000, -0.011718750, -0.099609375, 0.138671875, 0.039062500, 0.085937500, -0.101562500, -0.041015625, -0.050781250, 0.000000000, 0.046875000, -0.066406250, -0.003906250, -0.003906250, 0.017578125, -0.152343750, 0.216796875, 0.068359375, -0.044921875, 0.025390625, 0.066406250, 0.003906250, 0.064453125, 0.230468750, 0.205078125, -0.152343750, -0.201171875, 0.162109375, 0.099609375, -0.037109375, 0.314453125, -0.238281250, 0.015625000, 0.179687500, -0.070312500, -0.001953125, -0.107421875, 0.136718750, 0.232421875, -0.150390625, 0.005859375, -0.195312500, 0.062500000, -0.013671875, -0.099609375, -0.093750000, 0.082031250, -0.064453125, 0.039062500, -0.044921875, -0.025390625, 0.025390625, -0.052734375, 0.132812500, 0.226562500, -0.095703125, 0.236328125, -0.119140625, -0.083984375, 0.056640625, -0.083984375, 0.091796875, -0.058593750, -0.169921875, -0.089843750, 0.048828125, -0.015625000, -0.060546875, -0.068359375, 0.000000000, -0.056640625, 0.009765625, 0.119140625, -0.136718750, 0.179687500, 0.023437500, 0.119140625, 0.121093750, -0.054687500, 0.179687500, 0.091796875, 0.041015625, -0.023437500, -0.062500000, -0.037109375, 0.052734375, -0.078125000, -0.029296875, 0.013671875, 0.054687500, -0.097656250, 0.048828125, 0.146484375, -0.187500000, -0.134765625, 0.216796875, -0.076171875, 0.021484375, 0.093750000, -0.109375000, 0.048828125, -0.011718750, -0.037109375, -0.119140625, -0.210937500, 0.158203125, -0.117187500, -0.105468750, 0.013671875, -0.109375000, -0.001953125, -0.193359375, -0.207031250, -0.089843750, 0.001953125, -0.064453125, -0.113281250, -0.095703125, -0.154296875, -0.023437500, -0.277343750, -0.070312500, 0.101562500, 0.021484375, -0.179687500, -0.128906250, 0.050781250, -0.101562500, -0.398437500, -0.089843750, 0.076171875, 0.021484375, -0.037109375, 0.035156250, 0.210937500, 0.035156250, 0.000000000, -0.167968750, 0.015625000, -0.003906250, 0.138671875, -0.123046875, -0.060546875, -0.089843750, -0.017578125, 0.046875000, 0.064453125, -0.066406250, -0.169921875, 0.160156250, -0.156250000, 0.078125000, -0.201171875, 0.107421875, -0.066406250, -0.123046875, 0.046875000, -0.169921875, 0.128906250, 0.042968750, -0.001953125, -0.105468750, 0.009765625, 0.068359375, -0.136718750, -0.093750000, -0.156250000, 0.023437500, -0.050781250, -0.199218750, 0.134765625, 0.242187500, 0.152343750, 0.150390625, -0.021484375, -0.402343750, -0.191406250, -0.042968750, 0.175781250, -0.097656250, 0.003906250, -0.011718750, -0.345703125, -0.037109375, -0.017578125, -0.009765625, -0.039062500, 0.150390625, 0.132812500, 0.064453125, -0.017578125, -0.029296875, -0.052734375, -0.082031250, -0.095703125, 0.197265625, 0.041015625, 0.027343750, 0.158203125, -0.142578125, 0.058593750, -0.167968750, 0.023437500, -0.019531250, -0.087890625, -0.066406250, 0.105468750, 0.156250000, 0.144531250, -0.072265625, 0.029296875, 0.015625000, 0.117187500, -0.160156250, -0.031250000, -0.169921875, -0.232421875, 0.083984375, 0.103515625, 0.017578125, 0.140625000, -0.009765625, 0.048828125, -0.125000000, 0.050781250, 0.076171875, -0.156250000, -0.126953125, 0.121093750, -0.080078125, -0.070312500, -0.091796875, 0.007812500, 0.005859375, 0.140625000, 0.216796875, -0.033203125, 0.193359375, 0.035156250, -0.085937500, -0.056640625, -0.029296875, 0.042968750, -0.132812500, -0.162109375, 0.179687500, 0.255859375, -0.236328125, 0.138671875, 0.037109375, -0.076171875, -0.142578125, 0.013671875, -0.162109375, 0.169921875, 0.087890625, -0.076171875, 0.037109375, 0.009765625, -0.046875000, 0.105468750, 0.089843750, -0.009765625, 0.046875000, -0.093750000, -0.066406250, 0.000000000, 0.210937500, 0.027343750, 0.101562500, 0.107421875, -0.068359375, 0.046875000, -0.078125000, -0.087890625, 0.027343750, 0.003906250, -0.015625000, -0.117187500, 0.017578125, 0.117187500, -0.066406250, 0.054687500, -0.025390625, 0.240234375, 0.005859375, -0.169921875, -0.021484375, 0.041015625, 0.054687500, -0.023437500, -0.089843750, 0.042968750, -0.105468750, -0.158203125, 0.070312500, 0.242187500, 0.011718750, 0.080078125, -0.113281250, 0.281250000, -0.056640625, -0.093750000, 0.144531250, -0.130859375, 0.251953125, -0.189453125, 0.025390625, 0.044921875, 0.037109375, -0.244140625, -0.341796875, 0.179687500, 0.125000000, -0.302734375, -0.013671875, 0.164062500, -0.101562500, -0.259765625, -0.005859375, 0.035156250, 0.054687500, -0.166015625, 0.031250000, 0.154296875, 0.048828125, -0.271484375, -0.318359375, 0.103515625, -0.027343750, -0.185546875, -0.101562500, -0.027343750, -0.015625000, 0.128906250, 0.070312500, 0.150390625, 0.109375000, -0.132812500, -0.216796875, -0.046875000, -0.240234375, 0.109375000, 0.099609375, 0.048828125, 0.093750000, 0.091796875, 0.095703125, 0.117187500, -0.087890625, -0.068359375, 0.052734375, 0.058593750, 0.031250000, -0.224609375, -0.210937500, -0.115234375, 0.117187500, -0.083984375, 0.064453125, -0.175781250, 0.007812500, -0.109375000, -0.093750000, -0.029296875, -0.136718750, -0.076171875, 0.179687500, 0.082031250, 0.066406250, -0.130859375, 0.154296875, 0.060546875, -0.107421875, 0.035156250, 0.097656250, -0.091796875, -0.111328125, -0.080078125, -0.105468750, 0.048828125, -0.093750000, 0.095703125, -0.236328125, -0.234375000, 0.103515625, 0.085937500, -0.201171875, 0.166015625, -0.167968750, 0.123046875, -0.031250000, 0.046875000, 0.130859375, 0.074218750, 0.093750000, 0.136718750, -0.019531250, -0.025390625, 0.113281250, -0.142578125, -0.142578125, -0.017578125, -0.009765625, 0.007812500, 0.064453125, 0.142578125, -0.105468750, 0.142578125, -0.185546875, -0.058593750, -0.078125000, -0.126953125, -0.031250000, 0.078125000, 0.019531250, 0.080078125, 0.203125000, 0.134765625, 0.105468750, -0.205078125, -0.013671875, 0.066406250, -0.099609375, -0.103515625, -0.148437500, 0.134765625, 0.044921875, -0.074218750, 0.107421875, -0.125000000, -0.062500000, -0.035156250, -0.015625000, 0.107421875, -0.046875000, 0.060546875, -0.150390625, 0.013671875, -0.115234375, -0.113281250, -0.070312500, 0.113281250, 0.023437500, 0.148437500, -0.177734375, 0.093750000, -0.060546875, 0.158203125, -0.066406250, 0.068359375, -0.242187500, 0.009765625, -0.037109375, -0.474609375, -0.058593750, 0.070312500, -0.029296875, -0.023437500, -0.042968750, 0.119140625, 0.046875000, -0.316406250, 0.003906250, 0.132812500, -0.091796875, 0.189453125, -0.144531250, 0.152343750, 0.082031250, -0.228515625, 0.029296875};

#endif

#endif
