//Numpy array shape [16, 10]
//Min -2.081095218658
//Max 0.856058120728
//Number of zeros 0

#ifndef W21_H_
#define W21_H_

#ifndef __SYNTHESIS__
output_weight_t w21[160];
#else
output_weight_t w21[160] = {0.6199546456, -0.1251995862, -0.4720005691, 0.5955582857, -1.0163902044, -1.9656394720, 0.1745722443, 0.2569808066, -1.0305286646, 0.4409631789, 0.4822652042, -0.2210618705, -1.1519589424, 0.5999297500, -1.7748229504, -1.0530476570, 0.3805771768, 0.0119504798, -1.7877793312, -0.6136052608, -1.9277604818, 0.4411941469, -0.2768064141, 0.1770061404, 0.4978449345, 0.2385823280, -0.8969509602, -1.8586379290, 0.3351138532, 0.2236408889, -0.4766840637, -1.7457529306, -1.0964267254, -0.0736512020, -1.9955879450, 0.3379634023, 0.4134925604, 0.3687831163, 0.4652073383, 0.4431273043, 0.6896614432, -0.1389731467, 0.7393659353, -0.3117072582, -1.2848123312, -1.0567917824, -1.4195153713, 0.4093136787, -0.5235923529, -1.8131184578, -1.2653759718, -0.7746658325, -1.3708009720, -1.2110558748, -1.1071864367, 0.7777108550, 0.6550725698, 0.5873145461, -0.1934726536, 0.4378473163, -0.8099150658, -0.0215989277, 0.1504727304, 0.1111626774, 0.6347577572, 0.8056297302, 0.7246127725, -1.3725197315, -1.4264402390, -0.5091497898, -1.4839277267, -0.9781023860, -1.3973071575, -1.0881899595, -1.5848705769, 0.4644125104, 0.4259953499, 0.4129665196, 0.5390138626, 0.4055756330, 0.0703227073, -0.0590344593, 0.8237796426, -0.1156161129, -0.6096259356, -0.3429132402, -0.6745353341, 0.8560581207, 0.4844591618, -1.0019980669, -1.7906740904, 0.5194216967, 0.3318177760, 0.0017573897, 0.5815191865, 0.2314389050, -1.1392562389, -1.1805690527, -0.4970177412, 0.0252862182, 0.2684538960, 0.2522104681, 0.2178131938, 0.2633549273, 0.2350071967, -2.0810952187, -0.1383520067, -1.0152590275, -0.3836827576, 0.0245925803, 0.4550651014, 0.7241658568, -0.3273307979, 0.4482612908, -1.2308108807, 0.3373387456, 0.2127983868, -0.4791386127, -0.8341232538, -1.3392276764, 0.5637926459, -0.5342423916, 0.7343449593, -0.2881252766, -0.5581958890, -0.2827349305, 0.7956278920, 0.6897805333, -0.7925632000, -0.7708989382, -0.1366822720, 0.3974639773, 0.3906535804, -0.3213494122, 0.1218187287, 0.2257401347, 0.3288432062, -0.0193046164, -0.1792899966, -0.4158868194, 0.2624053359, -0.0751223788, 0.2992659211, -0.3453235328, -1.2041451931, -1.7244688272, -0.5959361792, 0.2079368234, -0.0936532989, -0.2591542900, -1.5638039112, -0.7923540473, -0.9931264520, 0.2083196044, 0.4579529166, 0.5030379295, -0.6813402176, 0.3410470188, 0.3750503063, 0.4097149074};

#endif

#endif
