//Numpy array shape [32, 10]
//Min -1.107354760170
//Max 0.591325223446
//Number of zeros 0

#ifndef W21_H_
#define W21_H_

#ifndef __SYNTHESIS__
output_weight_t w21[320];
#else
output_weight_t w21[320] = {0.1239662617, 0.0705337822, 0.0990873352, 0.0534686372, -0.7382906675, -0.4974344671, 0.0098126102, 0.0605255701, -0.8136436343, -0.2841881216, 0.1428067833, 0.2450148016, 0.2406509072, -0.0117705436, 0.2437710613, 0.1127766222, -0.7087082267, 0.0912216455, -0.7960141301, -0.4719651341, 0.4291038513, 0.0222245436, 0.1746667475, 0.4302895367, -0.5392081141, -0.2230271548, 0.1235050261, -0.5163547993, -0.2672030032, 0.1396107674, -0.0607928373, 0.1853220463, -0.1176716313, 0.2445406914, 0.3390772343, -0.5125043392, -0.4753986895, -0.5614544153, -0.1902880520, 0.2449346483, 0.1571518481, -0.1772235781, 0.5913252234, -0.3791420460, -0.5958411694, 0.2306543589, -0.4728390872, -0.2466405183, -0.7060239911, -0.0159895234, 0.4011762738, -0.3115018010, -0.6863790751, 0.0424367487, -0.7142097950, -0.2085863054, 0.4753451645, 0.4900153875, 0.0416784473, 0.2878698707, -0.4769126177, -0.1236423329, 0.3787755668, 0.2723800242, -0.4164881110, -0.4451112151, -0.0369902812, -0.5327974558, 0.3546628058, -0.2743624747, -0.3541942537, -0.1249081492, -0.3055696785, -0.1760109961, 0.1375238597, -0.0996614918, 0.0848362222, 0.0836631730, 0.3519687653, -0.2883692384, 0.3130415976, 0.0715832710, 0.2367113680, -0.2997123003, -0.2121863663, 0.1308827400, 0.2970205247, -0.1109250560, -0.0196899958, -0.0606082454, -1.1073547602, -0.6374207139, -0.8120666146, 0.1080304235, -0.2220328152, 0.2537199557, 0.1894078702, -0.3970455527, 0.2519966066, 0.2271946818, -0.3546558321, 0.2680810988, -0.0671675205, -0.1795460731, -0.3651929200, 0.1165532619, -0.2879091799, 0.1014827862, 0.0419286825, -0.1694092751, -0.8917943835, -0.5598896146, -0.3738785982, -0.4954024851, -0.5857408047, 0.1624770463, 0.1947744638, 0.2748197913, 0.2830661833, 0.2702307403, 0.2725520134, 0.1756108403, -0.3162769079, 0.2315018922, 0.0068873269, -0.3174424767, 0.2584290206, -0.7601376176, -0.4380666614, 0.0080491779, -0.1123132259, -0.8041387200, -0.3050037622, 0.2954025865, 0.0063868565, -0.5263667107, -0.1466954350, -0.2496858537, 0.1992065459, 0.2861845195, -0.6458441019, -0.1556634903, -0.6569202542, -0.3088066876, -0.0017450885, 0.4282004237, 0.3813475072, -0.6439529061, 0.0862801149, -0.3547096848, 0.2623764873, 0.2203964889, 0.0076693199, -0.8861687183, -0.5814756751, -0.5631712675, -0.3378014863, 0.4268071949, -0.0650633723, -0.6838254333, 0.1528714895, 0.1288337857, 0.3918569386, 0.2906512320, -0.5353380442, -0.5398479700, -0.3202317655, 0.0892559886, -0.0130398348, -0.6590463519, -0.1741782278, -0.0678143352, 0.3036523461, 0.1412529796, 0.0929553509, 0.2624542415, -0.0394821987, 0.2440614551, -0.0634464175, -0.1074779406, 0.2737101018, -0.4359147251, 0.4671001434, -0.4076455235, -0.4032425284, -0.0727512911, 0.5490314364, -0.4695180655, 0.3637632728, -0.2122180313, -0.4358001947, 0.0882318616, 0.2102726549, -0.1851251423, 0.2766432762, 0.2502879202, -0.4447329342, -0.1637182832, 0.0097240228, 0.0004910139, 0.0689442754, -0.5666211247, -0.9059722424, 0.0424137302, -0.7771280408, -0.6389510036, 0.1186486334, 0.1138661727, 0.0650724545, 0.1157207564, -0.6677367091, -0.6125128269, -0.7235674262, 0.1515586823, 0.1930421591, 0.2189209759, 0.1316523403, 0.2188984305, 0.2536372840, 0.2649217546, 0.0996562690, -0.2895452678, -0.1789714992, -0.0880229548, -0.0403161608, -0.1034885123, 0.1829327941, 0.0884106755, -0.2795479596, 0.1043207198, 0.3972296119, -0.2152557224, -0.5433685780, -0.2216897905, -0.4643692374, -0.2653769851, 0.3786958158, 0.3842529058, -0.5725549459, -0.4526835680, -0.3881374300, -0.2095636278, -0.7958701253, -0.4452294409, -0.4548675418, 0.3079878688, -0.3781901896, -0.8446121812, 0.2519514263, -0.1014912650, -0.9143688679, 0.3174451888, -0.2974795401, -0.1510178149, 0.4286857247, 0.3867039382, -0.1702561080, -0.2090007216, -0.8166071177, -0.2187823951, 0.1766765714, -0.3583161235, -0.0847250447, -0.3209854662, 0.0195522252, -0.1436122209, 0.0092310542, -0.3456857502, 0.0860260352, 0.1936397254, 0.3565029204, 0.4755316973, 0.4978628457, -0.3461500406, -0.3921298385, -0.0389975570, -0.5742049217, -0.5157153010, -0.3737263978, -0.3605205417, -0.0886466950, 0.2773255706, -0.4706179798, -0.0381502025, 0.5197481513, -0.0468400307, -0.5533509851, 0.0366630815, -0.4751130044, 0.3638021350, 0.2171269357, -0.0058891666, -0.1035965532, -0.2966203392, -0.1450562030, 0.2738817334, -0.1783210486, 0.3621105552, -0.3342860341, -0.0057812473, 0.0077337697, 0.3373592198, 0.2050080895, 0.2645778358, 0.3906910121, -0.3079465628, -0.4809038937, -0.3317593932, -0.4144863784, -0.0664676651, -0.4028885365, -0.7192251086, 0.0527683608, -0.5783289075, -0.5579034686, 0.3377469480, 0.2593956888, 0.3595263064, 0.3566978276, 0.2989784479};

#endif

#endif
