//Numpy array shape [3, 3, 8, 16]
//Min -1.252871632576
//Max 0.982189118862
//Number of zeros 0

#ifndef W7_H_
#define W7_H_

#ifndef __SYNTHESIS__
conv2_weight_t w7[1152];
#else
conv2_weight_t w7[1152] = {-0.2201745808, 0.2049132138, -0.2739144564, -0.1251582056, 0.0849229246, 0.5180042982, 0.4199064076, -0.1524181217, -0.4601220787, -0.1309202164, -0.5744781494, 0.4603869319, 0.2631317675, -0.3006283641, 0.3465451598, -0.0079069473, -0.0485258251, -0.2352094203, -0.2823769748, 0.1820445508, 0.5851095915, -0.0579810925, 0.0397463627, -0.1979835629, 0.4369857907, 0.0459545292, 0.4049693346, -0.3605869412, -0.1191065162, 0.1569586694, 0.2654359937, 0.0606849231, 0.0593935587, -0.4364795387, 0.4002585709, -0.2200576514, -0.4543121755, -0.2736831903, 0.1924582720, -0.1361013055, 0.2380057871, 0.1083423346, 0.1871933043, 0.0260463804, 0.3981060684, -0.3657615483, -0.1405843347, -0.3391875625, 0.4335269332, -0.5463410616, -0.0511120148, -0.2466151863, -0.1195428520, 0.3625400066, 0.2910657525, 0.2763166726, 0.3127254844, 0.1543066800, -0.0683216229, 0.0719153285, 0.0099901687, 0.5260611773, -0.0252289586, -0.1139145494, -0.1117295474, -0.5099567175, 0.1401674896, 0.0043868958, 0.0077982354, -0.1400671750, 0.0565697439, 0.9821891189, 0.0853004083, 0.0547637902, 0.0835866779, -0.0847316384, -0.0066564591, 0.0361460485, 0.0589434020, 0.0901168436, 0.0624037497, 0.0717313886, -0.0601256825, 0.0481786355, 0.0297305398, 0.0450716130, 0.0829089805, 0.0352565311, 0.0305129439, 0.0245446377, 0.0087556057, 0.0111623807, -0.0107081505, 0.0648017153, 0.0131126661, 0.0828058943, -0.0069571626, 0.0015622341, -0.1047208533, 0.0463875942, -0.0356062837, 0.0228647199, -0.0170570090, -0.0115329046, 0.0211917162, 0.0331555083, -0.0249257926, 0.0527926534, -0.0044850102, 0.0622090213, 0.0641091689, -0.0367304832, -0.1003405154, 0.0760073513, 0.0171707086, 0.1424962878, 0.0717394277, -0.0175418872, 0.1117619649, 0.1200177073, 0.0482296571, -0.0923804864, -0.1743448228, 0.1538029015, -0.0042249919, 0.0007348410, -0.1158647090, 0.0315417163, -0.0432883501, 0.0070615504, -0.0217486583, -0.0597479194, 0.0045725983, 0.0865285993, -0.0679780915, -0.0183279235, 0.0528030321, 0.0323448107, -0.1492232233, 0.0038633610, 0.0944626033, 0.0786092356, -0.0323591828, -0.1181279719, 0.1444500983, 0.0759067684, 0.1547809392, 0.1639513373, -0.0098525882, 0.1372113526, 0.0732065737, 0.0326552056, 0.1068543419, 0.1285947263, 0.0167868827, 0.0713292062, 0.0462359004, -0.0810741559, 0.0709077343, 0.0481222644, -0.0565987788, -0.0803359002, 0.1252877116, -0.1137541085, -0.0638472214, -0.0159298982, -0.0214906372, 0.0367459618, -0.1400599927, 0.1092544124, 0.0061118053, -0.0638166964, 0.1218635142, 0.1461493075, 0.0127511285, -0.0758485720, -0.1598820984, 0.1377903223, 0.1958860606, -0.0607464276, 0.0548405834, -0.1165556312, 0.1149217635, -0.0425429158, 0.1224931851, 0.0498068258, -0.0347954407, 0.0988712683, -0.0135346008, -0.0438044891, 0.0214215163, 0.0372560136, 0.0196326021, -0.2641228735, -0.1248337254, -0.0736616775, -0.0992654487, -0.0314383097, -0.0600607768, -0.1877327263, -0.0311511680, 0.0864739940, 0.1496313363, 0.0511278249, 0.0604324229, 0.0563431382, 0.2282520384, 0.0798171237, 0.1074501276, 0.0437740833, 0.2686331272, 0.1055208221, 0.0767947882, -0.0578972027, 0.1427515447, 0.1445894241, -0.0533427745, 0.0599187091, -0.1505595446, 0.1371860504, -0.1007203683, 0.1503588408, 0.0239222962, 0.0143987434, -0.0607465021, 0.0368189961, 0.0446527041, -0.0058751698, -0.1563502997, 0.0146688353, -0.0254398845, 0.0456802920, -0.0731281191, 0.0958155170, -0.1843272597, 0.1316194087, 0.0388766862, 0.1202266365, 0.0926322117, 0.0065448149, 0.1122750342, -0.0916464031, 0.0547119267, -0.1100284755, -0.0355042294, 0.0181994885, -0.0095450440, -0.0565848015, 0.0206578895, -0.1260901242, 0.1351159513, -0.0944619104, -0.1187487841, -0.0291218646, 0.1078649312, -0.0158601310, 0.0038325437, -0.1150960997, 0.0499647036, -0.0859147608, 0.1237260029, 0.1152412966, -0.0939482003, 0.1422913671, -0.2458672225, -0.0679439530, -0.1802273542, -0.0601497516, 0.0800944567, -0.3066450953, 0.2204502374, 0.3568330705, -0.1210379750, -0.2455395013, -0.4518796504, -0.1919178963, 0.0885496959, -0.1950668097, 0.2221031934, -0.1240390018, -0.2110417336, 0.1049296036, -0.1264336407, 0.0309447087, 0.2231365442, -0.0571998097, 0.2853942513, 0.1540558636, -0.2621017992, 0.0587771907, -0.1091448292, 0.0480643883, -0.1217389554, -0.1456069499, 0.0556260645, 0.1170666367, 0.0512689501, 0.0647991300, -0.2743656933, -0.1595458239, -0.1155414507, 0.0724369064, -0.3314792812, -0.1407808512, -0.0240681544, -0.1388691962, -0.0810297728, 0.1769056618, -0.1209786683, 0.0788387358, -0.2131015211, -0.1029044464, -0.0776981711, -0.2901758254, 0.1483155638, -0.1822567135, 0.0587114245, 0.3229961395, -0.1059652269, -0.0768137127, 0.0569012128, -0.1660776436, -0.0977483243, 0.1952739805, 0.0657949671, 0.2854838669, -0.1833157539, 0.1194184870, 0.3340575993, 0.2695044875, -0.1144204214, -0.0750591308, -0.0106990598, 0.2811420858, 0.1349618137, -0.3481373489, 0.2231966704, 0.0674041957, -0.0033023367, 0.1558909416, 0.1489437371, 0.1826786548, -0.0832302868, -0.3209561110, 0.1734116226, 0.2709596455, 0.2098496854, -0.0415743999, -0.2268771231, 0.0502342135, -0.1825594157, -0.0125589967, -0.1142805144, 0.0974197537, -0.0241944045, -0.0880158171, -0.2198865414, 0.1661477536, 0.0468974598, -0.2243234813, -0.0231322851, 0.0467917919, -0.0293240938, -0.1460910290, 0.0289541408, 0.1798122227, 0.0034500961, -0.1163312122, 0.1465888023, -0.1747385561, 0.1517052650, -0.1378327012, 0.0627019852, 0.1616092473, -0.1836811900, -0.1579828113, 0.3445037603, 0.1504307985, 0.1691986322, 0.1724897027, 0.1335943788, -0.1402546018, 0.0873127207, 0.0852559432, -0.0733417049, 0.1182652935, -0.0863378868, 0.0734882802, 0.0627105460, -0.0839485228, -0.1341810822, -0.2362047136, -0.1756227762, -0.1419079155, -0.0043611843, -0.1415476948, -0.0777039826, 0.0857674927, 0.0383853093, -0.0291843321, 0.1475012600, -0.0745911896, -0.1295190603, 0.1443678737, -0.0541786924, -0.0142433308, 0.0877354741, -0.1913510263, 0.1385530084, 0.0695414767, 0.0580270439, -0.1922791153, 0.1911458671, 0.0125394566, -0.0163627565, 0.1262432784, 0.2124136537, 0.2500413656, 0.0517558008, -0.2702774405, 0.0575770251, -0.0161160529, 0.0075203707, 0.1782194823, 0.3936611712, 0.0031192848, 0.3538111150, -0.1585309207, 0.1139619648, -0.0165652931, -0.0403764993, 0.4121231735, -0.3816265464, -0.0996866524, 0.2337203175, 0.0072917566, 0.1365515888, 0.0423991755, -0.1714610904, 0.1435746104, 0.1093645319, -0.0787856653, -0.1742197573, -0.2134344429, 0.1079020426, 0.1961508095, -0.1071048900, -0.0911818296, -0.1647361070, -0.0388648771, 0.2061342299, -0.0031943270, 0.0021699704, 0.2082962394, -0.1368842572, -0.2280560583, 0.1578468233, 0.0990790278, -0.1165045947, -0.0703730136, 0.2317438424, 0.1797723770, 0.0746408328, -0.1148482338, 0.3416400254, 0.0448076949, -0.0812845975, 0.0829128698, 0.1188515946, -0.1989258379, 0.1233959645, 0.0195383299, 0.2597065270, -0.0297481138, 0.0376281999, 0.0390627086, 0.2014888376, 0.0304329507, 0.0104322182, -0.1485452056, -0.3120807111, -0.1487271935, 0.5074865222, -0.2559097707, -0.1865572035, -0.0878057852, 0.3775683641, -0.1147881076, -0.1698525697, -0.3919429183, 0.1121655479, -0.0717900246, -0.2543334365, -0.0904888362, 0.1029490232, -0.1717045754, -0.1135110855, -0.2135691941, 0.4643456340, -0.1763139963, -0.2606153190, -0.0885536745, 0.0759262666, 0.0712422132, -0.4393227398, 0.2079999298, -0.0597026236, -0.0113855386, 0.2086480111, 0.2168489546, -0.2353554368, 0.0340794511, -0.2466936857, -0.1067307517, -0.0960571319, 0.2648166716, 0.3348086774, 0.1282204837, 0.2127511799, -0.0130549902, -0.1132413298, 0.2268650532, -0.1859954149, 0.0800674856, 0.2770758867, 0.0507910959, 0.0983293280, 0.0810327455, 0.0014267494, -0.1063315645, 0.1894294918, 0.1048246175, 0.1053696722, -0.0950953886, 0.1247629225, -0.1351579279, 0.1811891645, 0.2880366743, -0.2852561772, -0.2911113799, -0.0286745448, -0.0368400477, -0.1603539586, 0.2544609308, 0.0164990816, 0.1326566637, 0.0538080186, 0.1806631684, 0.1215203032, -0.0880821124, -0.0346149094, 0.0521663763, -0.2881118655, 0.0463126078, 0.1226148009, -0.3212345541, -0.1375118196, 0.1578177214, -0.0165479407, -0.2343330383, -0.4615069926, -0.0803145319, 0.0790178478, -0.2952874601, -0.0134095345, -0.1120113507, -0.4354960620, -0.0264716092, -0.3299948573, -0.2357698828, -0.1948000640, -0.3648039699, 0.0163221750, -0.4424118698, -0.3199491799, -0.2465356290, -0.1185198650, -0.2078966945, 0.0772121102, 0.0788991600, -0.0908382460, -0.0497328155, 0.0614573434, 0.1099811047, 0.1081171632, 0.0848841444, 0.1424573362, -0.0526227690, 0.0700242147, 0.0284844469, -0.0122495126, -0.1981036365, 0.1301434785, 0.1180345714, -0.0146469874, 0.0553058349, 0.0718499497, 0.1361251175, -0.0288941022, -0.0206523854, 0.0757605135, -0.0899510235, 0.0850297362, 0.0973816216, -0.2988572419, 0.1440883130, -0.0126928603, 0.0723138899, 0.3419922888, -0.0600885786, -0.1137954593, 0.0320145898, -0.0704162568, -0.0963902697, 0.0567891374, -0.1959724873, 0.4054107666, -0.1251193732, -0.1643281728, 0.0574902482, -0.1602780968, -0.0743248686, -0.0280299205, 0.0820031837, -0.1426902860, -0.0128993401, -0.0447200201, 0.2631174922, -0.0748924091, 0.1278774291, 0.0023403566, -0.3361325264, -0.1694819927, 0.1695749909, 0.3525315523, 0.1482443959, 0.1845276356, 0.1834995300, -0.1460629702, -0.0572895966, 0.0857872814, -0.1319735199, 0.4187836349, 0.1501983553, 0.2978414893, 0.1964667588, -0.2837504447, -0.1293068677, -0.0604941845, -0.1202654988, 0.0080871126, -0.0499414653, -0.1193062961, -0.4536665976, -0.1794291735, -0.1165818945, 0.1615944654, -0.1973697543, 0.4519668221, -0.0112983398, 0.1693363041, -0.2563229501, -0.4669981897, -0.1890368909, -0.0615868904, -0.0582511090, -0.0265335962, -0.1676020771, 0.1407037675, -0.4050874114, -0.2912711799, 0.2582787573, 0.4124263525, -0.1939660609, -0.0753724128, -0.0748535544, 0.5506705046, 0.0676182657, -0.3856943250, -0.1583924145, 0.0696452036, -0.0291136485, -0.2284702063, 0.3166922033, 0.0888541788, 0.1954349875, -0.2306498289, -0.0932198241, -0.1141977459, 0.0017056544, 0.1052486673, -0.1505134404, -0.0075966236, -0.0106194746, 0.0419924185, -0.3471616507, 0.4912550151, 0.1551433504, -0.1030330658, 0.0593250878, 0.1490812451, 0.0092574190, 0.1474966407, 0.5241274238, 0.4671307802, -0.3470284045, -0.4558326602, 0.3691434264, 0.2265337706, -0.0840687379, 0.7164873481, -0.5377016664, 0.0358104967, 0.4113138020, -0.1596183926, -0.0043759709, -0.2447670549, 0.3111616075, 0.5299949646, -0.3417068422, 0.0099512199, -0.2822424769, 0.0884173736, -0.0190774817, -0.1427460760, -0.1336039901, 0.1183416396, -0.0925853848, 0.0573800541, -0.0658185706, -0.0378201753, 0.0364327431, -0.0775011256, 0.1895936430, 0.3250709176, -0.1372078806, 0.3408000767, -0.1707991660, -0.1207745001, 0.0803692192, -0.1209008619, 0.1307167113, -0.0844668001, -0.2432868779, -0.1295034736, 0.0698244423, -0.0239445213, -0.0877388567, -0.0977594852, 0.0012952044, -0.0815369636, 0.0123399599, 0.1711066216, -0.1967135817, 0.2585337460, 0.0346417166, 0.1709193587, 0.1731044948, -0.0784671530, 0.2596312463, 0.1327228695, 0.0582038462, -0.0319071971, -0.0900035053, -0.0542396456, 0.0747556239, -0.1120141745, -0.0418474786, 0.0207451750, 0.0789742842, -0.1398259550, 0.0718377456, 0.2100139111, -0.2679336667, -0.1931881011, 0.3131182492, -0.1082410067, 0.0312451664, 0.1335127801, -0.1553232074, 0.0700335577, -0.0160387009, -0.0553572923, -0.1714108735, -0.3022462130, 0.2274602056, -0.1684777439, -0.1509674340, 0.0185815133, -0.1561929733, -0.0033348966, -0.2794568241, -0.2261364758, -0.0975992903, 0.0026500085, -0.0713746399, -0.1236243546, -0.1034968644, -0.1685992032, -0.0264958628, -0.3005215824, -0.0763218775, 0.1110100001, 0.0224702414, -0.1963953078, -0.1393271834, 0.0555265807, -0.1110574752, -0.4331439435, -0.0988364965, 0.0823708102, 0.0237654801, -0.0395106636, 0.0378758013, 0.2293951511, 0.0388813429, 0.0000150493, -0.1832984835, 0.0159073900, -0.0037556861, 0.1500826627, -0.1345843226, -0.0667345598, -0.0983674973, -0.0189608335, 0.0502529293, 0.0697460026, -0.0723895207, -0.1843878180, 0.1739195138, -0.1698392034, 0.0841584951, -0.2190364003, 0.1167590618, -0.0718960762, -0.1332639009, 0.0498646908, -0.1850331575, 0.1409897655, 0.0456903465, -0.0013995668, -0.1147575602, 0.0086598340, 0.0743681639, -0.1493205726, -0.1014365479, -0.1707884073, 0.0262297560, -0.0544862300, -0.2172312438, 0.1465971172, 0.2637098432, 0.1660641730, 0.1633810550, -0.0233831741, -0.4359733760, -0.2086648941, -0.0480169095, 0.1914114505, -0.1055556312, 0.0046355585, -0.0119656334, -0.3755566478, -0.0409650393, -0.0353709124, -0.0199275799, -0.0753182843, 0.2914581597, 0.2586943805, 0.1263372898, -0.0330117196, -0.0587990731, -0.1037066951, -0.1601288021, -0.1871012300, 0.3860804439, 0.0785281211, 0.0538626350, 0.3086670637, -0.2782480419, 0.1162235513, -0.3291574121, 0.0456407554, -0.0394627601, -0.1715353578, -0.1306894869, 0.2065666169, 0.3059095442, 0.2824827433, -0.1405155510, 0.0547551028, 0.0296041016, 0.2276366055, -0.3145663142, -0.0610480346, -0.3342298567, -0.4521451592, 0.1645423025, 0.1999789327, 0.0330963768, 0.2753885686, -0.0185012165, 0.0940781310, -0.2433680445, 0.1001811847, 0.1489105225, -0.3055704832, -0.2481039762, 0.2369150221, -0.1548828781, -0.1370885074, -0.1801203340, 0.0134766549, 0.0109237665, 0.2752758265, 0.4235810637, -0.0634312630, 0.3777688742, 0.0700129122, -0.1700284779, -0.1090189293, -0.0565615036, 0.0855675042, -0.2617847323, -0.3187937438, 0.3502960503, 0.5017943382, -0.4606018066, 0.2692671716, 0.0721332058, -0.1499460638, -0.2810035050, 0.0249928795, -0.3185096085, 0.3322197199, 0.1718773842, -0.1911534071, 0.0956518725, 0.0269775856, -0.1200265735, 0.2655697763, 0.2277665585, -0.0263964217, 0.1195198894, -0.2366619408, -0.1663827747, -0.0006651030, 0.5308294892, 0.0703404546, 0.2556209564, 0.2714174986, -0.1714741737, 0.1166090444, -0.1963278204, -0.2228396386, 0.0713875294, 0.0106780007, -0.0419828109, -0.2936785817, 0.0458039753, 0.2953631878, -0.1645720452, 0.1400675029, -0.0616284199, 0.6066114902, 0.0133532220, -0.4275739789, -0.0558420382, 0.1033615842, 0.1368730664, -0.0561231971, -0.2251617312, 0.1109711602, -0.2666469514, -0.3996292353, 0.1760208607, 0.6091627479, 0.0316119231, 0.2031301409, -0.2836308479, 0.7106611729, -0.1432292461, -0.2353057116, 0.3626009822, -0.3283917904, 0.6340548396, -0.4750383794, 0.0642608032, 0.1138788462, 0.0957169905, -0.6154071093, -0.8597278595, 0.4529237449, 0.3136401772, -0.7637358904, -0.0336122587, 0.4123553038, -0.2540836632, -0.6545199752, -0.0146677727, 0.0894005820, 0.1392650753, -0.4187342823, 0.0792817175, 0.3912160695, 0.1239350066, -0.6842476726, -0.8028026223, 0.1780967861, -0.0483785719, -0.3179597855, -0.1755734384, -0.0470339172, -0.0284905862, 0.2207836360, 0.1182499155, 0.2589214444, 0.1853410751, -0.2293124348, -0.3710412979, -0.0827366188, -0.4120317101, 0.1882494539, 0.1714703590, 0.0822729170, 0.1588229090, 0.1573039293, 0.1620073617, 0.1991105527, -0.1504350305, -0.1178533807, 0.0886320993, 0.1009794176, 0.0524783283, -0.3838012218, -0.3618912697, -0.1993155479, 0.1992320269, -0.1439895332, 0.1104771420, -0.3008284569, 0.0143824695, -0.1890645176, -0.1605395079, -0.0501418747, -0.2345270514, -0.1302638501, 0.3063814342, 0.1419531107, 0.1151962057, -0.2258382589, 0.2650102079, 0.1040279418, -0.1844241768, 0.0600004047, 0.1675310582, -0.1566739082, -0.1903042793, -0.1358134598, -0.1806600094, 0.0847771764, -0.1602988392, 0.1644550264, -0.4056376517, -0.4017395973, 0.1775010228, 0.1479747444, -0.3442414999, 0.2845608890, -0.2895478904, 0.2101211548, -0.0518096611, 0.0802126154, 0.2257097512, 0.1253619790, 0.1593736708, 0.2331213653, -0.0346177779, -0.0420789495, 0.1931829453, -0.3756626546, -0.3750048280, -0.0458755046, -0.0271155629, 0.0185793452, 0.1688569188, 0.3741198182, -0.2789364755, 0.3772894740, -0.4900061786, -0.1551409960, -0.2053131610, -0.3375255466, -0.0828210786, 0.2035215944, 0.0523045808, 0.2093125731, 0.5353715420, 0.3557586372, 0.2781114578, -0.5420389771, -0.0380472876, 0.1758296639, -0.2648071945, -0.2728277445, -0.3897121251, 0.3576729894, 0.1177820042, -0.1958926469, 0.2828044891, -0.3297491670, -0.1616223603, -0.0898744613, -0.0416103117, 0.2824236453, -0.1203597710, 0.1599888653, -0.3966766298, 0.0390492193, -0.3033697605, -0.2971968055, -0.1860676259, 0.2981716990, 0.0614733398, 0.3915197849, -0.4700058699, 0.2455104142, -0.1591396183, 0.4166628122, -0.1744505465, 0.1779534370, -0.6363830566, 0.0249754079, -0.0990089700, -1.2528716326, -0.1564435810, 0.1867904514, -0.0761968717, -0.0608332120, -0.1137623861, 0.3146167397, 0.1255120337, -0.8339484930, 0.0093284389, 0.3522002101, -0.2428037822, 0.5021545291, -0.3814446330, 0.3999081850, 0.2150286138, -0.5994598866, 0.0785862580};

#endif

#endif
