//Numpy array shape [3, 3, 8, 8]
//Min -0.500000000000
//Max 0.375000000000
//Number of zeros 198

#ifndef W12_H_
#define W12_H_

#ifndef __SYNTHESIS__
weight12_t w12[576];
#else
weight12_t w12[576] = {0.000, 0.125, 0.125, 0.125, 0.000, 0.125, -0.125, 0.000, -0.125, 0.000, -0.125, -0.250, 0.000, 0.125, -0.125, 0.250, -0.250, -0.125, 0.000, 0.000, 0.000, 0.125, 0.000, -0.125, 0.125, 0.125, 0.000, -0.125, 0.000, 0.125, 0.000, 0.125, 0.125, 0.375, 0.250, 0.000, 0.000, -0.250, 0.125, 0.000, -0.125, 0.000, -0.125, -0.125, 0.125, -0.375, 0.000, -0.125, -0.250, 0.125, 0.125, -0.125, -0.375, 0.125, 0.125, 0.000, 0.125, 0.000, 0.125, 0.000, -0.375, -0.375, -0.125, 0.125, 0.000, 0.000, 0.250, 0.000, -0.250, -0.125, -0.125, -0.125, -0.125, 0.000, 0.125, -0.250, 0.000, 0.250, -0.125, -0.250, 0.000, -0.125, 0.000, -0.125, 0.125, 0.000, -0.250, 0.125, 0.000, 0.000, 0.000, 0.000, 0.000, 0.125, 0.000, 0.000, 0.375, 0.375, 0.000, 0.000, -0.125, -0.125, 0.000, 0.125, -0.375, 0.000, 0.000, -0.375, 0.250, 0.125, 0.000, 0.000, 0.375, 0.125, 0.125, -0.125, 0.000, 0.125, -0.250, 0.125, 0.250, -0.125, -0.125, 0.125, 0.125, 0.125, 0.000, 0.000, 0.000, 0.000, 0.375, 0.000, -0.125, 0.125, -0.250, -0.375, 0.125, 0.000, -0.500, -0.125, -0.125, 0.000, 0.125, -0.250, 0.125, -0.125, 0.000, -0.125, 0.250, -0.125, 0.000, 0.125, -0.250, 0.000, 0.125, 0.000, -0.125, 0.125, -0.125, -0.125, 0.250, 0.250, 0.125, 0.375, -0.125, 0.000, 0.250, 0.125, 0.000, -0.250, 0.250, 0.000, 0.125, -0.125, -0.125, 0.000, 0.000, 0.250, 0.000, 0.000, 0.250, -0.125, -0.250, -0.125, 0.000, 0.250, 0.000, 0.000, 0.000, -0.250, 0.125, -0.125, -0.125, -0.125, 0.000, 0.000, 0.125, -0.125, -0.125, 0.000, 0.125, -0.125, -0.125, 0.000, 0.000, -0.125, 0.000, -0.250, -0.125, -0.250, 0.000, -0.125, 0.125, -0.125, -0.125, 0.000, -0.125, 0.000, 0.000, 0.000, -0.250, 0.250, 0.000, 0.000, -0.125, 0.125, 0.000, 0.125, -0.250, -0.125, 0.125, 0.000, 0.000, 0.000, 0.375, 0.000, 0.250, 0.125, 0.000, 0.000, -0.125, 0.125, -0.125, 0.125, -0.125, 0.125, -0.125, -0.125, 0.125, -0.125, 0.000, -0.125, 0.250, -0.125, 0.125, 0.000, 0.000, -0.125, -0.125, 0.125, 0.000, -0.375, 0.125, 0.125, 0.000, 0.000, 0.000, 0.000, 0.000, -0.125, 0.125, 0.125, 0.000, -0.125, 0.000, -0.375, -0.125, 0.125, -0.250, -0.125, 0.000, 0.000, -0.125, 0.125, 0.000, 0.000, 0.000, 0.125, -0.250, 0.125, 0.000, 0.250, 0.125, 0.125, -0.250, -0.250, -0.125, 0.000, 0.125, -0.125, 0.125, 0.000, -0.125, 0.000, -0.125, 0.000, 0.000, -0.250, 0.000, 0.125, -0.250, -0.250, -0.125, -0.125, -0.250, -0.250, 0.000, 0.000, 0.000, 0.250, 0.250, 0.000, 0.250, 0.000, 0.375, -0.125, 0.125, 0.125, 0.000, -0.125, -0.125, 0.000, -0.125, -0.250, 0.000, 0.125, 0.000, -0.125, 0.000, -0.125, 0.000, 0.125, -0.125, -0.125, 0.000, 0.000, -0.125, 0.000, 0.250, 0.125, 0.000, 0.000, 0.000, 0.000, 0.000, 0.000, 0.250, 0.000, -0.125, -0.250, 0.000, -0.125, -0.125, 0.000, -0.125, -0.125, 0.000, -0.125, 0.000, 0.125, 0.125, -0.125, 0.000, -0.125, 0.125, 0.125, -0.125, -0.250, -0.250, -0.125, -0.125, 0.125, -0.125, 0.250, 0.000, -0.125, 0.000, -0.125, -0.125, 0.125, 0.000, -0.125, -0.250, 0.125, 0.125, 0.000, -0.125, -0.250, -0.125, 0.000, 0.000, 0.000, -0.125, 0.125, 0.000, 0.000, -0.125, -0.125, 0.125, -0.125, -0.125, 0.000, 0.000, -0.125, 0.000, 0.250, 0.000, 0.125, 0.125, 0.000, 0.000, 0.000, -0.250, 0.125, 0.000, 0.125, 0.125, 0.125, -0.125, 0.125, -0.125, 0.000, 0.125, 0.000, 0.125, 0.125, 0.125, -0.125, 0.000, 0.000, 0.125, -0.125, -0.375, -0.125, 0.000, -0.125, 0.125, 0.125, 0.125, -0.125, 0.125, 0.125, 0.000, 0.000, -0.125, -0.125, -0.125, -0.125, 0.000, 0.000, 0.000, -0.125, -0.250, -0.125, -0.250, 0.125, 0.125, 0.375, 0.000, -0.250, 0.250, -0.250, 0.000, -0.125, 0.000, -0.375, 0.125, 0.250, 0.250, 0.000, -0.125, 0.125, -0.125, -0.125, 0.000, 0.250, -0.250, 0.250, -0.125, 0.000, 0.250, -0.125, 0.125, 0.250, 0.125, -0.250, 0.250, -0.375, 0.000, 0.125, -0.125, -0.125, 0.000, 0.375, 0.000, -0.125, 0.000, 0.000, 0.125, 0.125, 0.000, 0.125, 0.000, -0.250, 0.125, -0.250, 0.000, -0.125, -0.125, -0.125, 0.000, 0.000, 0.125, -0.125, 0.125, -0.250, -0.250, -0.125, 0.125, 0.000, -0.250, -0.125, 0.125, -0.125, 0.250, 0.000, -0.125, -0.250, -0.125, -0.250, 0.000, 0.125, 0.125, 0.000, 0.000, 0.000, 0.000, 0.000, 0.000, -0.250, 0.000, 0.125, 0.250, 0.125, 0.125, 0.000, 0.000, -0.125, 0.000, -0.375, 0.125, 0.125, 0.000, -0.125, -0.125, 0.125, 0.000, 0.000, -0.125, 0.000, 0.000, 0.000, 0.000, 0.000, 0.125, 0.125};

#endif

#endif
