//Numpy array shape [3, 3, 16, 16]
//Min -0.375000000000
//Max 0.500000000000
//Number of zeros 1059

#ifndef W12_H_
#define W12_H_

#ifndef __SYNTHESIS__
weight12_t w12[2304];
#else
weight12_t w12[2304] = {0.000, 0.000, 0.000, 0.250, 0.000, 0.000, -0.125, 0.000, 0.000, 0.000, 0.125, 0.125, 0.000, 0.000, 0.000, 0.000, 0.000, 0.000, 0.125, 0.375, 0.125, -0.125, 0.000, 0.000, -0.250, -0.125, 0.250, 0.125, 0.125, 0.000, 0.000, 0.000, 0.125, 0.000, 0.000, 0.125, 0.000, 0.125, 0.000, -0.125, -0.125, 0.000, 0.125, 0.125, -0.125, 0.125, 0.000, 0.000, 0.000, -0.125, 0.000, 0.125, 0.000, 0.000, 0.000, -0.125, 0.125, 0.000, 0.000, 0.000, 0.000, 0.125, 0.000, 0.000, 0.125, 0.000, 0.000, 0.000, 0.125, -0.250, -0.125, 0.000, 0.125, 0.000, 0.000, 0.125, 0.000, 0.000, 0.000, 0.000, 0.000, 0.125, 0.000, -0.125, 0.125, 0.000, -0.125, -0.125, 0.125, 0.000, 0.000, -0.125, -0.125, 0.000, 0.125, 0.000, 0.125, -0.125, 0.000, 0.000, 0.250, -0.125, 0.000, -0.125, -0.125, 0.125, 0.000, -0.125, 0.125, -0.125, -0.250, 0.125, 0.125, -0.125, -0.125, 0.000, 0.125, -0.125, 0.125, -0.125, -0.125, 0.250, 0.125, -0.125, 0.125, 0.000, 0.000, 0.125, 0.125, 0.000, 0.125, -0.125, 0.000, 0.000, 0.000, -0.125, -0.250, 0.000, 0.125, -0.125, 0.000, -0.125, 0.000, 0.000, 0.125, 0.125, 0.000, 0.000, 0.000, 0.000, 0.000, 0.000, 0.000, -0.125, -0.125, 0.000, 0.000, 0.000, -0.125, 0.000, -0.125, -0.125, 0.000, 0.000, 0.125, 0.000, -0.125, 0.000, 0.125, -0.125, 0.000, 0.000, 0.125, 0.000, 0.000, 0.125, 0.125, 0.000, 0.000, -0.125, 0.000, -0.125, -0.125, 0.000, -0.125, 0.000, 0.000, 0.125, 0.000, 0.000, 0.000, -0.125, 0.000, 0.000, -0.125, 0.125, 0.000, 0.000, 0.000, 0.000, 0.000, 0.000, -0.125, 0.250, 0.000, 0.125, -0.125, 0.000, -0.125, 0.125, -0.125, -0.125, 0.000, -0.125, 0.000, 0.000, 0.000, -0.125, 0.000, 0.125, 0.000, 0.000, 0.125, -0.125, 0.125, 0.000, 0.000, 0.000, 0.000, 0.125, 0.125, 0.250, -0.250, -0.125, 0.000, 0.125, 0.125, -0.125, 0.000, -0.125, 0.125, -0.125, 0.000, 0.125, 0.000, 0.000, 0.125, 0.125, 0.000, 0.125, 0.000, -0.250, 0.125, 0.000, 0.125, 0.125, 0.000, -0.375, 0.000, 0.125, 0.000, -0.125, 0.000, 0.000, 0.000, 0.000, -0.125, -0.250, 0.125, 0.000, 0.000, -0.250, 0.250, -0.250, 0.000, 0.000, 0.125, 0.000, 0.250, 0.125, -0.125, -0.125, 0.000, 0.000, 0.125, 0.000, 0.250, 0.000, 0.000, 0.000, 0.000, 0.125, 0.000, -0.125, -0.125, 0.000, 0.125, 0.125, 0.125, 0.125, 0.000, 0.125, -0.125, -0.125, 0.000, 0.000, -0.125, 0.000, 0.000, 0.000, 0.125, -0.125, 0.000, 0.000, 0.000, 0.125, 0.000, 0.000, 0.000, -0.125, 0.000, 0.000, 0.125, 0.250, 0.000, 0.125, 0.000, 0.000, 0.000, 0.125, 0.000, 0.125, 0.000, -0.125, 0.000, 0.125, 0.125, 0.000, 0.125, -0.125, 0.000, 0.000, -0.125, -0.125, 0.000, 0.125, 0.000, -0.125, -0.250, 0.000, 0.000, 0.000, 0.125, 0.000, 0.125, 0.000, 0.125, 0.125, -0.125, -0.125, 0.250, 0.000, 0.000, -0.125, -0.125, -0.125, 0.000, 0.000, 0.000, 0.000, 0.000, 0.125, 0.125, -0.125, -0.125, 0.000, 0.125, 0.000, 0.125, -0.125, 0.000, -0.125, -0.125, -0.125, -0.250, 0.000, 0.000, 0.000, 0.000, 0.125, -0.375, 0.000, 0.000, -0.125, 0.000, 0.125, -0.125, 0.125, -0.250, 0.250, 0.000, 0.250, 0.000, 0.125, -0.125, 0.125, -0.125, -0.125, 0.125, -0.125, 0.125, 0.000, -0.125, 0.125, -0.125, 0.250, -0.125, 0.250, 0.000, 0.000, -0.250, 0.125, -0.125, -0.250, 0.000, 0.000, 0.125, 0.125, 0.125, 0.125, -0.125, 0.125, 0.000, 0.125, 0.125, 0.000, -0.125, -0.125, -0.125, -0.125, 0.000, -0.125, 0.125, 0.000, 0.125, 0.000, -0.125, 0.000, 0.000, 0.125, 0.125, 0.000, -0.125, -0.125, -0.125, 0.000, 0.000, -0.125, 0.000, 0.000, -0.125, 0.125, -0.125, 0.125, 0.000, 0.000, 0.000, -0.125, -0.125, 0.000, -0.125, 0.125, 0.000, -0.250, 0.125, 0.000, 0.000, 0.000, 0.000, 0.125, 0.000, 0.000, 0.000, 0.125, -0.125, 0.125, -0.125, 0.000, 0.000, 0.000, 0.000, 0.000, -0.125, 0.000, 0.000, -0.250, 0.000, 0.000, 0.125, 0.125, -0.125, 0.000, 0.000, -0.125, -0.125, -0.125, 0.000, 0.000, 0.000, 0.000, 0.000, 0.000, 0.000, 0.125, 0.000, 0.125, -0.125, 0.000, -0.125, 0.125, 0.000, -0.125, 0.000, 0.000, -0.250, -0.125, 0.000, -0.125, 0.125, 0.000, 0.125, 0.000, -0.125, 0.000, -0.125, -0.125, 0.000, -0.250, 0.000, 0.250, 0.000, 0.000, 0.125, 0.125, 0.250, 0.125, 0.000, 0.000, 0.000, 0.125, 0.000, -0.125, -0.125, -0.250, -0.125, 0.000, 0.125, -0.250, 0.000, -0.125, 0.000, -0.125, 0.125, 0.125, -0.125, 0.000, 0.125, -0.125, -0.125, 0.000, 0.125, 0.125, 0.125, 0.125, 0.250, 0.000, 0.000, -0.125, 0.000, 0.000, 0.125, -0.125, 0.000, -0.125, 0.000, 0.000, 0.000, 0.000, 0.000, 0.125, 0.000, 0.125, -0.125, -0.125, 0.125, 0.000, 0.000, 0.000, 0.000, 0.000, 0.000, -0.125, -0.125, 0.000, 0.000, 0.000, 0.125, -0.125, 0.000, 0.000, 0.000, -0.125, 0.000, 0.000, 0.125, 0.000, -0.125, 0.125, -0.125, 0.125, 0.125, 0.125, 0.000, -0.125, 0.125, 0.000, 0.000, -0.250, 0.125, -0.125, 0.125, 0.000, 0.000, 0.000, 0.125, -0.125, 0.250, 0.125, 0.000, 0.000, 0.125, 0.000, 0.000, 0.000, 0.250, 0.125, 0.125, -0.125, 0.125, 0.500, -0.125, 0.000, 0.125, 0.000, 0.000, 0.000, -0.125, 0.000, 0.000, -0.125, 0.125, -0.125, -0.125, -0.125, 0.000, 0.125, -0.125, 0.000, 0.125, 0.000, 0.125, -0.125, -0.125, 0.125, 0.125, 0.000, 0.000, 0.250, 0.000, -0.125, 0.125, 0.125, 0.000, -0.125, -0.125, 0.000, -0.125, 0.000, -0.125, -0.125, -0.125, 0.125, -0.125, 0.125, 0.125, 0.125, 0.250, -0.125, 0.000, 0.125, 0.000, -0.125, -0.125, 0.000, 0.000, 0.125, 0.125, 0.000, -0.125, 0.125, -0.125, -0.125, 0.250, 0.125, 0.125, 0.000, 0.000, 0.000, -0.125, 0.000, 0.125, -0.125, 0.000, 0.000, -0.125, 0.125, 0.125, 0.250, 0.000, 0.250, 0.000, 0.000, 0.000, 0.125, -0.125, -0.125, 0.000, 0.125, 0.000, -0.250, 0.125, 0.000, 0.000, 0.125, 0.000, 0.000, 0.000, 0.000, 0.125, 0.125, 0.125, 0.000, 0.125, -0.125, 0.000, -0.125, 0.000, -0.125, 0.000, 0.250, -0.125, 0.000, -0.125, 0.000, 0.000, 0.125, 0.000, 0.000, 0.000, 0.000, 0.125, -0.125, 0.000, 0.000, 0.125, -0.125, 0.000, 0.000, -0.125, 0.000, 0.125, 0.125, 0.000, 0.000, 0.125, 0.000, 0.000, 0.000, 0.000, -0.125, 0.125, 0.000, -0.125, 0.000, -0.250, 0.000, 0.000, -0.125, 0.000, 0.000, -0.125, 0.000, 0.125, 0.000, 0.000, 0.000, 0.125, 0.000, -0.125, 0.000, -0.250, 0.125, 0.000, 0.000, -0.125, -0.125, 0.000, 0.000, 0.000, 0.125, 0.000, 0.000, 0.250, 0.000, 0.000, -0.250, 0.000, 0.250, -0.125, 0.000, 0.000, -0.125, 0.000, -0.125, 0.000, 0.000, 0.000, -0.125, 0.000, 0.125, 0.000, -0.125, -0.125, 0.125, -0.125, 0.125, -0.125, 0.000, 0.000, 0.000, 0.000, 0.000, 0.125, 0.125, 0.125, 0.000, 0.000, -0.250, 0.125, 0.000, 0.000, 0.000, -0.125, 0.000, 0.000, 0.125, 0.000, 0.000, -0.125, 0.000, -0.125, 0.000, 0.000, -0.125, -0.125, -0.125, 0.125, 0.125, 0.125, 0.125, 0.000, 0.000, 0.000, 0.000, 0.000, 0.000, 0.000, -0.125, 0.125, 0.000, -0.125, 0.000, -0.125, 0.125, 0.000, 0.000, -0.125, -0.125, 0.000, 0.125, -0.125, 0.000, -0.125, 0.000, 0.000, -0.250, 0.000, 0.125, -0.125, 0.125, 0.250, -0.125, -0.125, 0.000, 0.000, 0.000, 0.000, 0.000, -0.125, 0.000, 0.125, 0.000, 0.000, 0.250, 0.000, 0.125, 0.000, 0.125, -0.125, 0.125, -0.125, 0.000, -0.125, 0.250, 0.000, 0.000, 0.125, -0.125, 0.125, 0.000, 0.000, 0.250, 0.125, 0.000, -0.250, 0.000, 0.000, 0.000, -0.125, 0.000, 0.000, -0.125, 0.000, 0.000, 0.000, 0.125, 0.000, 0.125, 0.250, 0.125, 0.000, 0.000, 0.000, -0.125, 0.000, 0.000, -0.125, 0.125, 0.000, -0.250, 0.000, 0.000, 0.000, 0.125, 0.250, 0.000, -0.250, 0.000, -0.125, -0.125, -0.125, 0.000, 0.000, 0.125, 0.000, -0.125, 0.000, 0.250, 0.000, 0.000, 0.125, 0.125, -0.125, 0.000, 0.000, 0.000, 0.000, 0.125, 0.000, 0.125, 0.125, 0.000, -0.125, 0.000, -0.125, -0.125, 0.250, 0.000, 0.000, -0.125, 0.000, 0.125, 0.000, 0.125, 0.125, -0.125, 0.000, 0.000, -0.125, 0.000, -0.125, 0.000, 0.000, -0.125, 0.125, 0.125, 0.000, 0.000, -0.125, -0.125, 0.000, -0.125, 0.000, -0.125, -0.125, 0.125, 0.000, 0.125, 0.125, -0.250, 0.000, 0.125, 0.125, 0.000, 0.000, 0.000, 0.000, 0.000, 0.000, -0.250, -0.125, 0.000, -0.125, 0.125, 0.000, -0.250, -0.125, 0.000, 0.000, 0.000, -0.125, 0.125, -0.125, 0.000, 0.000, -0.125, 0.000, 0.125, 0.000, 0.125, 0.250, 0.125, -0.250, 0.125, -0.125, 0.000, -0.250, 0.000, -0.375, 0.000, 0.000, 0.000, -0.125, 0.125, -0.125, 0.125, 0.250, 0.000, -0.125, 0.000, -0.125, 0.000, -0.125, 0.125, 0.000, -0.125, 0.000, 0.000, -0.125, 0.000, 0.125, 0.125, 0.125, 0.000, 0.000, 0.000, 0.125, 0.000, 0.000, 0.000, -0.125, 0.000, -0.125, -0.125, 0.125, 0.125, 0.125, 0.000, 0.125, -0.250, 0.125, 0.000, 0.000, 0.000, 0.125, 0.125, 0.000, 0.125, 0.000, -0.125, 0.000, -0.125, -0.125, -0.125, -0.125, 0.000, 0.000, 0.250, -0.125, -0.125, 0.000, -0.125, 0.000, 0.125, 0.000, 0.000, 0.000, 0.000, 0.000, 0.125, 0.000, -0.125, -0.125, 0.000, 0.000, 0.125, 0.000, -0.125, 0.000, 0.000, 0.000, -0.250, 0.125, 0.125, -0.125, 0.000, 0.000, 0.125, 0.000, 0.125, 0.000, 0.000, -0.125, 0.000, 0.000, -0.125, -0.125, 0.000, 0.125, -0.125, 0.000, 0.000, 0.000, 0.000, -0.125, 0.125, 0.250, 0.000, -0.125, 0.125, 0.000, -0.125, 0.000, 0.000, 0.125, 0.250, 0.250, 0.125, 0.000, 0.125, 0.000, 0.000, -0.125, 0.125, -0.125, -0.125, -0.125, 0.000, 0.000, 0.000, -0.125, 0.125, -0.125, 0.000, 0.125, 0.000, 0.000, 0.000, 0.125, 0.000, 0.000, -0.125, -0.125, 0.125, -0.125, 0.125, 0.250, -0.125, -0.125, 0.000, 0.250, 0.125, 0.000, 0.125, 0.000, -0.125, -0.125, 0.000, -0.125, 0.000, 0.125, 0.125, 0.000, -0.125, 0.000, 0.000, 0.000, 0.000, 0.000, 0.000, -0.250, 0.125, 0.000, -0.125, 0.000, 0.000, 0.000, 0.000, 0.000, 0.000, 0.125, 0.000, 0.125, -0.250, 0.000, 0.000, -0.125, 0.000, 0.000, 0.000, 0.125, -0.125, -0.125, 0.000, -0.125, 0.125, 0.250, -0.125, 0.125, -0.250, 0.125, 0.000, -0.125, 0.000, 0.000, -0.125, 0.000, 0.000, 0.000, 0.000, -0.125, -0.125, 0.000, 0.000, 0.125, -0.250, 0.250, -0.250, 0.125, -0.125, 0.000, 0.000, -0.250, -0.125, 0.125, 0.000, 0.000, 0.125, 0.000, 0.000, 0.000, 0.125, 0.000, 0.000, -0.125, -0.125, 0.125, 0.000, -0.125, 0.125, -0.125, 0.125, 0.000, 0.000, 0.125, -0.125, 0.125, 0.000, -0.125, -0.125, 0.000, -0.125, 0.000, 0.000, -0.250, 0.000, 0.000, 0.000, 0.000, 0.000, -0.125, 0.000, 0.125, 0.125, 0.000, -0.125, -0.125, -0.125, 0.000, -0.125, 0.125, 0.125, -0.125, 0.125, 0.000, 0.000, -0.125, -0.125, 0.000, 0.250, 0.125, 0.125, 0.125, 0.000, 0.125, -0.125, 0.000, 0.125, 0.000, 0.125, 0.125, 0.125, 0.000, 0.000, 0.125, 0.125, 0.125, 0.000, 0.000, 0.125, 0.000, 0.000, 0.000, 0.125, -0.125, 0.000, -0.125, -0.125, -0.125, 0.000, 0.000, 0.000, -0.125, 0.000, -0.125, -0.125, 0.125, 0.000, 0.125, 0.000, 0.000, 0.125, 0.000, 0.125, 0.000, 0.000, 0.125, 0.000, -0.125, 0.000, -0.125, 0.000, 0.000, 0.000, 0.000, 0.000, 0.000, 0.125, 0.000, 0.125, -0.125, -0.125, 0.125, -0.125, 0.000, 0.125, 0.125, 0.125, -0.125, 0.000, 0.125, 0.125, -0.125, 0.125, 0.000, 0.000, 0.125, -0.125, 0.000, -0.125, 0.000, 0.000, -0.125, -0.125, 0.125, -0.125, 0.125, 0.125, -0.125, 0.000, 0.000, 0.000, -0.125, 0.000, 0.000, 0.125, 0.125, 0.000, 0.125, 0.000, 0.000, -0.125, -0.125, 0.000, -0.125, 0.000, 0.000, 0.125, 0.125, 0.000, 0.000, 0.000, 0.000, 0.000, -0.125, -0.125, 0.000, 0.125, 0.000, 0.125, 0.000, 0.000, 0.000, -0.125, 0.000, 0.000, 0.000, 0.000, 0.000, -0.125, -0.125, 0.000, -0.125, 0.125, 0.000, 0.000, 0.000, 0.000, 0.000, 0.125, 0.000, 0.000, 0.000, 0.000, -0.125, 0.000, -0.125, 0.000, -0.125, 0.000, 0.125, 0.000, 0.000, -0.125, 0.000, 0.125, 0.000, 0.125, 0.250, 0.125, 0.000, 0.000, 0.000, 0.000, -0.125, 0.125, 0.000, 0.000, 0.125, 0.000, 0.000, -0.125, 0.000, 0.000, 0.125, 0.000, 0.000, -0.250, -0.125, -0.125, 0.250, 0.000, 0.250, 0.125, 0.125, 0.000, 0.000, -0.250, 0.125, 0.125, 0.125, -0.125, 0.125, 0.000, 0.000, -0.125, 0.125, -0.250, 0.250, 0.125, -0.125, -0.125, 0.125, -0.125, 0.000, 0.125, 0.250, -0.125, 0.125, -0.125, -0.375, 0.000, 0.125, -0.125, 0.000, 0.000, 0.000, 0.125, -0.125, 0.000, 0.000, 0.125, 0.250, 0.000, 0.000, -0.125, 0.125, 0.000, 0.125, 0.000, -0.125, 0.000, -0.125, 0.125, 0.125, 0.000, 0.000, 0.000, 0.125, -0.125, 0.125, 0.000, 0.000, -0.125, 0.250, 0.000, -0.125, -0.125, 0.250, 0.000, 0.000, 0.000, 0.125, 0.125, 0.000, 0.000, 0.000, -0.125, 0.000, 0.125, 0.000, 0.000, 0.000, 0.000, 0.125, 0.125, -0.125, -0.125, 0.000, -0.125, 0.000, 0.125, -0.125, 0.000, 0.000, 0.125, 0.000, 0.000, -0.125, 0.125, 0.000, 0.000, 0.000, 0.125, 0.000, -0.125, -0.125, 0.000, -0.125, -0.125, 0.000, -0.125, 0.125, 0.000, -0.125, 0.125, 0.000, 0.125, 0.000, 0.125, -0.250, 0.000, -0.125, 0.000, -0.125, 0.000, 0.000, 0.125, 0.000, -0.125, -0.125, 0.000, 0.000, 0.000, 0.000, -0.125, 0.000, 0.125, 0.000, -0.125, 0.125, 0.125, -0.125, 0.000, -0.125, 0.000, 0.000, 0.125, 0.125, 0.125, 0.000, -0.125, 0.125, -0.125, -0.125, 0.000, 0.125, 0.000, 0.000, 0.000, 0.125, 0.125, -0.125, 0.125, -0.125, 0.125, -0.125, -0.250, 0.125, 0.125, -0.125, 0.000, 0.000, 0.125, 0.125, -0.125, 0.000, 0.000, 0.000, 0.125, 0.125, 0.125, 0.000, 0.000, 0.125, 0.125, 0.000, 0.000, 0.000, -0.125, 0.125, 0.000, 0.000, 0.000, 0.125, -0.125, 0.125, 0.000, -0.125, -0.125, 0.125, -0.125, -0.125, 0.000, 0.000, 0.000, 0.125, 0.000, -0.125, 0.000, 0.125, -0.125, 0.125, 0.000, 0.125, 0.125, 0.000, 0.000, -0.125, 0.000, 0.000, 0.125, 0.000, 0.125, 0.000, 0.000, 0.000, -0.125, 0.000, 0.000, -0.125, 0.125, 0.000, 0.125, 0.000, -0.125, 0.125, 0.125, 0.000, -0.125, 0.000, 0.125, -0.250, -0.250, 0.000, 0.125, 0.000, 0.000, 0.000, -0.125, -0.125, 0.000, 0.000, 0.125, 0.125, 0.000, 0.125, 0.000, 0.000, 0.000, 0.125, 0.000, 0.000, 0.000, 0.000, -0.125, -0.125, 0.000, 0.125, 0.000, 0.125, -0.250, 0.000, 0.125, 0.250, -0.125, 0.125, 0.000, 0.000, -0.250, 0.000, -0.125, -0.125, 0.000, 0.125, 0.125, 0.250, 0.125, 0.000, 0.125, -0.125, 0.000, 0.125, 0.000, 0.125, 0.000, 0.125, 0.000, 0.000, 0.125, 0.250, 0.000, 0.000, 0.000, -0.125, 0.000, -0.250, 0.125, 0.000, 0.000, 0.000, 0.000, -0.125, -0.250, -0.250, -0.125, 0.000, -0.125, 0.125, 0.125, 0.000, 0.000, 0.000, -0.125, 0.000, 0.000, -0.125, 0.125, -0.125, -0.250, 0.000, 0.000, 0.000, 0.125, 0.000, -0.125, 0.000, 0.000, 0.000, -0.125, 0.000, -0.125, 0.000, -0.125, -0.125, 0.000, 0.125, 0.000, 0.125, 0.125, -0.125, 0.250, 0.125, 0.125, 0.000, 0.000, 0.000, 0.000, 0.000, 0.125, 0.000, 0.000, -0.125, 0.125, 0.000, 0.000, 0.125, 0.000, 0.000, 0.125, 0.000, 0.000, -0.125, 0.000, 0.000, 0.000, -0.125, -0.125, 0.000, 0.000, 0.000, -0.125, -0.250, 0.250, 0.125, -0.125, 0.000, 0.125, 0.000, -0.125, 0.000, 0.000, 0.125, 0.125, 0.000, 0.000, 0.000, 0.125, -0.125, 0.125, 0.125, 0.125, -0.125, 0.125, 0.000, 0.125, 0.000, 0.000, 0.000, 0.250, 0.000, -0.125, 0.000, 0.000, 0.125, 0.125, 0.125, 0.000, 0.125, 0.125, 0.000, -0.125, 0.125, 0.125, 0.000, 0.000, 0.000, 0.000, -0.250, 0.000, -0.125, 0.000, 0.125, -0.125, 0.125, 0.000, -0.125, -0.125, -0.125, 0.000, 0.125, 0.000, -0.125, 0.000, -0.250, 0.000, -0.125, 0.125, 0.250, -0.125, -0.125, 0.000, -0.125, 0.250, -0.250, -0.125, -0.125, 0.125, 0.125, 0.250, -0.250, 0.125, 0.125, 0.250, 0.000, -0.125, 0.000, 0.000, 0.125, 0.250, -0.125, -0.375, 0.125, 0.125, -0.125, 0.125, 0.000, 0.000, 0.000, -0.125, 0.125, 0.125, 0.250, 0.000, 0.125, 0.000, 0.000, 0.000, -0.125, 0.125, 0.000, 0.125, 0.000, 0.000, -0.125, -0.125, 0.000, -0.125, -0.125, -0.125, -0.125, 0.125, 0.000, 0.000, 0.125, 0.000, 0.125, 0.000, 0.000, 0.000, 0.000, 0.000, 0.000, 0.125, 0.000, 0.000, 0.000, 0.250, -0.125, -0.125, 0.125, 0.000, 0.000, 0.125, -0.125, 0.000, 0.000, 0.125, -0.125, 0.000, 0.125, 0.125, 0.000, 0.125, 0.000, -0.125, -0.125, 0.125, -0.125, 0.000, -0.125, 0.125, 0.000, -0.250, 0.125, 0.250, 0.125, 0.125, 0.125, 0.125, 0.000, 0.000, -0.125, -0.125, 0.125, 0.125, -0.125, 0.125, 0.125, 0.000, 0.125, 0.000, 0.125, 0.125, 0.125, -0.125, 0.000, -0.125, -0.125, 0.000, 0.000, -0.125, -0.125, 0.000, 0.000, 0.000, 0.000, 0.000, 0.000, 0.125, 0.125, -0.125, 0.125, 0.000, -0.125, 0.000, 0.000, -0.125, -0.125, -0.125, -0.125, 0.000, -0.125, -0.125, 0.250, -0.125, 0.000, 0.000, 0.000, 0.125, 0.000, 0.000, -0.125, 0.125, -0.125, 0.000, -0.125, -0.125, -0.125, -0.125, 0.000, -0.125, -0.125, -0.125, -0.125, 0.000, 0.125, -0.125, 0.000, 0.000, 0.000, -0.125, -0.125, 0.125, 0.000, 0.125, 0.000, 0.000, 0.000, 0.000, 0.125, 0.000, -0.125, -0.125, -0.125, 0.000, 0.125, 0.000, 0.125, 0.000, 0.000, -0.125, 0.000, 0.125, 0.125, 0.000, 0.000, 0.000, -0.125, -0.125, 0.000, 0.000, 0.000, 0.125, 0.000, -0.125, -0.250, 0.000, 0.000, 0.000, 0.250, 0.000, 0.125, 0.000, -0.125, -0.125, -0.125, -0.250, 0.000, 0.000, 0.125, 0.000, -0.125, 0.125, -0.125, -0.125, -0.125, 0.000, 0.000, -0.125, 0.000, 0.125, 0.000, 0.000, -0.125, 0.000, 0.125, 0.000, -0.125, 0.000, -0.250, -0.125, 0.000, 0.000, -0.125, 0.125, 0.000, 0.125, -0.125, 0.000, 0.125, 0.000, -0.125, 0.125, 0.000, -0.250, -0.250, 0.125, 0.000, -0.125, 0.000, -0.125, 0.000, -0.125, -0.125, 0.125, 0.250, 0.000, 0.125, -0.125, -0.125, 0.000, 0.000, 0.000, -0.125, 0.000, -0.250, -0.125, -0.125, 0.000, -0.125, 0.125, 0.000, 0.125, 0.125, 0.000, 0.125, 0.000, 0.125, -0.125, 0.000, 0.000, 0.000, 0.000, 0.125, -0.125, -0.250, 0.125, 0.000, 0.125, 0.000, 0.125, 0.000, 0.000, 0.000, -0.125, -0.125, 0.000, 0.000, 0.000, 0.000, 0.000, 0.125, 0.125};

#endif

#endif
