//Numpy array shape [112, 32]
//Min -0.500000000000
//Max 0.500000000000
//Number of zeros 1077

#ifndef W18_H_
#define W18_H_

#ifndef __SYNTHESIS__
weight18_t w18[3584];
#else
weight18_t w18[3584] = {0.250, 0.000, 0.000, 0.125, 0.000, -0.375, 0.125, -0.125, -0.125, 0.000, 0.000, 0.000, 0.125, 0.125, 0.125, 0.250, 0.125, -0.125, 0.125, 0.125, 0.000, -0.375, 0.000, 0.000, 0.375, 0.000, -0.250, 0.000, 0.125, 0.000, 0.000, 0.125, 0.125, 0.125, 0.125, 0.000, -0.250, -0.375, 0.250, -0.250, 0.250, 0.375, -0.125, 0.000, 0.250, 0.000, 0.000, 0.125, 0.250, -0.125, 0.375, -0.125, -0.250, -0.375, -0.125, -0.125, 0.250, 0.000, 0.125, -0.250, -0.125, 0.000, 0.000, 0.000, 0.250, -0.125, 0.000, 0.000, -0.125, -0.375, 0.000, -0.125, 0.125, 0.375, 0.000, -0.125, 0.000, 0.250, -0.250, -0.125, 0.375, -0.125, 0.250, 0.125, 0.125, -0.250, 0.375, 0.250, 0.125, 0.000, -0.125, 0.125, -0.125, 0.125, 0.000, -0.125, 0.125, 0.000, -0.250, 0.125, 0.000, 0.250, 0.000, 0.250, 0.000, -0.125, 0.125, -0.125, 0.125, -0.125, -0.250, 0.125, 0.125, 0.250, -0.250, 0.125, -0.125, 0.125, 0.000, -0.125, 0.000, -0.125, 0.250, 0.125, 0.125, 0.000, 0.000, 0.125, 0.125, 0.250, -0.250, 0.000, 0.000, -0.125, 0.000, -0.125, -0.250, 0.250, 0.125, 0.000, -0.250, 0.125, 0.000, 0.000, -0.125, 0.125, -0.250, 0.125, -0.250, 0.125, 0.000, 0.250, 0.000, 0.125, 0.250, 0.125, -0.250, 0.000, -0.125, 0.000, -0.125, 0.250, -0.250, 0.375, -0.375, 0.000, 0.250, 0.125, 0.000, 0.000, 0.000, -0.125, -0.125, -0.125, 0.000, 0.000, -0.125, 0.000, 0.000, 0.125, -0.250, -0.125, 0.250, 0.000, -0.125, 0.000, 0.250, 0.000, 0.000, 0.000, -0.125, -0.125, -0.250, 0.125, 0.125, 0.250, 0.000, 0.000, 0.000, -0.125, 0.125, 0.125, 0.000, -0.125, -0.125, 0.125, 0.000, -0.125, 0.125, 0.000, -0.125, 0.125, 0.000, 0.125, 0.125, 0.125, 0.000, 0.125, 0.125, 0.125, 0.125, 0.125, 0.000, -0.125, 0.250, -0.125, 0.125, 0.000, 0.125, 0.000, 0.000, -0.125, 0.125, -0.125, -0.250, 0.000, 0.250, 0.000, 0.000, 0.250, 0.125, -0.125, 0.250, 0.125, -0.125, -0.250, -0.125, -0.125, 0.375, 0.125, -0.125, -0.125, 0.125, 0.125, -0.250, 0.000, 0.250, -0.125, 0.250, 0.000, -0.125, 0.000, -0.125, 0.000, 0.250, 0.000, 0.000, 0.000, 0.000, -0.125, -0.250, 0.000, 0.125, 0.000, 0.250, 0.000, 0.125, -0.125, -0.250, -0.125, 0.125, 0.125, -0.250, -0.125, 0.000, 0.000, 0.000, 0.000, 0.250, 0.000, 0.125, 0.000, -0.125, 0.000, -0.125, -0.125, 0.000, 0.000, -0.375, -0.125, 0.000, 0.125, 0.000, 0.000, 0.250, 0.125, 0.125, -0.125, -0.125, 0.000, -0.125, 0.125, 0.125, 0.250, -0.125, 0.000, 0.000, 0.000, 0.125, 0.000, 0.125, -0.125, -0.250, 0.000, 0.000, -0.125, -0.375, -0.250, 0.125, 0.000, -0.125, 0.250, 0.000, -0.125, 0.125, 0.125, 0.250, 0.125, 0.125, 0.000, 0.125, 0.125, -0.125, 0.000, -0.125, 0.125, -0.125, 0.000, 0.000, 0.125, -0.125, 0.000, 0.250, 0.000, 0.000, 0.000, -0.125, 0.125, -0.125, 0.250, 0.250, 0.000, -0.125, 0.125, -0.250, 0.125, -0.250, -0.250, 0.125, 0.125, -0.125, 0.000, -0.125, 0.000, -0.125, -0.125, 0.000, -0.125, -0.250, 0.000, -0.125, 0.250, 0.000, 0.000, 0.250, 0.000, -0.125, -0.250, 0.125, 0.250, -0.250, 0.000, 0.125, -0.125, 0.000, -0.125, 0.250, 0.125, 0.000, -0.250, 0.125, 0.125, -0.125, -0.250, -0.250, 0.125, -0.125, -0.250, 0.125, 0.000, 0.125, -0.125, 0.250, 0.125, 0.125, 0.000, 0.000, -0.125, 0.000, 0.000, 0.000, 0.000, -0.375, -0.250, -0.125, -0.125, 0.000, 0.250, 0.375, 0.125, 0.125, -0.125, -0.250, -0.125, -0.125, -0.250, 0.125, 0.125, -0.500, -0.250, 0.000, 0.125, 0.000, -0.125, 0.000, 0.125, -0.125, 0.125, -0.125, -0.125, 0.000, 0.000, 0.125, 0.000, -0.125, 0.250, -0.125, 0.125, -0.125, -0.125, 0.000, 0.125, 0.250, 0.125, 0.000, 0.125, -0.125, 0.000, -0.125, 0.000, -0.250, 0.125, -0.125, 0.250, -0.125, 0.250, 0.250, 0.000, 0.125, -0.125, -0.125, 0.000, 0.000, 0.000, 0.000, -0.125, -0.125, -0.250, -0.250, 0.250, 0.000, 0.000, 0.000, -0.250, -0.250, 0.125, 0.000, 0.125, -0.125, 0.125, -0.250, -0.250, 0.125, 0.000, -0.125, 0.125, 0.125, 0.000, -0.250, -0.250, 0.000, 0.250, 0.250, -0.125, 0.000, 0.375, -0.250, 0.000, 0.250, 0.125, 0.000, 0.250, -0.125, 0.125, 0.125, -0.125, -0.125, 0.125, 0.125, 0.125, 0.000, 0.125, 0.000, -0.250, 0.250, 0.125, 0.125, -0.125, 0.000, 0.000, -0.250, 0.125, -0.125, -0.125, 0.000, 0.000, -0.250, 0.000, 0.000, 0.000, 0.125, -0.125, 0.125, 0.250, 0.125, -0.125, -0.125, 0.000, 0.125, 0.125, 0.000, 0.000, 0.250, -0.125, 0.125, -0.125, 0.250, -0.250, 0.000, -0.125, -0.125, -0.125, -0.125, -0.125, -0.250, 0.125, 0.000, -0.250, 0.125, 0.000, 0.000, -0.125, 0.250, -0.125, 0.250, 0.000, 0.000, 0.000, -0.125, 0.000, 0.125, 0.000, 0.125, -0.250, 0.250, -0.250, 0.000, -0.250, 0.250, 0.000, 0.250, 0.000, 0.000, -0.125, 0.000, 0.125, 0.125, -0.125, -0.125, -0.250, 0.000, -0.250, 0.000, -0.125, 0.250, 0.125, 0.250, 0.125, 0.000, 0.000, 0.125, 0.125, 0.000, -0.125, 0.125, -0.125, -0.125, -0.250, 0.000, -0.250, 0.375, 0.125, 0.375, -0.125, 0.000, 0.000, 0.000, 0.125, -0.125, -0.125, 0.000, -0.125, -0.125, 0.000, 0.250, -0.125, 0.125, 0.000, 0.375, 0.000, 0.000, -0.125, 0.000, 0.250, 0.000, -0.125, -0.125, 0.375, 0.000, 0.000, 0.125, 0.125, -0.125, -0.125, 0.000, 0.000, 0.125, -0.250, 0.125, -0.250, 0.000, -0.125, 0.000, 0.000, 0.000, 0.250, 0.000, 0.000, -0.125, -0.125, -0.125, 0.125, -0.250, -0.125, 0.125, -0.375, 0.000, 0.250, 0.125, 0.125, -0.125, 0.125, 0.125, 0.000, -0.125, -0.250, 0.000, 0.000, -0.250, 0.125, 0.250, -0.375, 0.000, 0.125, 0.250, 0.125, 0.125, 0.000, 0.250, -0.250, -0.250, -0.125, -0.250, -0.125, 0.000, -0.250, 0.250, -0.125, -0.125, 0.000, 0.000, -0.125, -0.125, 0.250, 0.250, 0.125, 0.000, -0.250, -0.125, -0.125, -0.125, 0.000, 0.125, -0.250, 0.000, 0.125, 0.000, 0.250, 0.000, 0.250, 0.125, 0.125, 0.000, -0.125, 0.000, 0.125, 0.000, -0.250, 0.250, -0.375, -0.125, 0.125, 0.125, -0.125, 0.250, 0.250, -0.125, 0.125, -0.125, 0.000, 0.000, -0.125, -0.125, 0.000, -0.125, -0.125, 0.125, 0.125, -0.125, -0.250, 0.125, 0.125, 0.125, 0.125, 0.375, -0.125, 0.250, 0.000, 0.000, 0.000, 0.125, 0.125, 0.000, 0.000, -0.125, 0.125, -0.125, -0.125, 0.000, 0.000, 0.125, 0.125, -0.125, -0.125, -0.125, -0.250, -0.125, 0.000, 0.125, 0.125, -0.125, 0.000, 0.125, 0.000, 0.000, 0.125, 0.000, 0.000, 0.000, 0.125, -0.125, 0.125, 0.125, 0.000, 0.125, 0.000, 0.000, -0.125, 0.125, 0.000, 0.000, -0.125, 0.000, -0.125, 0.125, 0.000, -0.125, -0.125, -0.125, -0.250, -0.125, -0.250, -0.125, -0.250, -0.125, 0.125, 0.000, -0.250, -0.125, -0.250, -0.250, 0.000, 0.125, 0.000, 0.125, 0.125, 0.000, 0.125, -0.125, 0.000, 0.000, 0.000, 0.000, 0.000, -0.125, -0.250, -0.125, 0.000, 0.000, 0.125, 0.125, -0.250, -0.250, -0.125, 0.125, -0.250, -0.125, -0.125, -0.125, 0.000, -0.250, -0.125, 0.000, -0.125, 0.000, -0.125, -0.125, -0.125, -0.125, 0.125, 0.125, -0.250, 0.000, 0.125, 0.000, 0.000, 0.000, 0.125, -0.250, -0.125, 0.125, 0.000, 0.000, 0.000, -0.125, -0.125, -0.125, 0.000, -0.250, 0.000, 0.000, -0.125, 0.125, 0.000, 0.000, -0.125, 0.125, 0.125, -0.125, 0.000, 0.000, 0.000, -0.125, -0.250, 0.000, 0.000, -0.125, -0.250, 0.000, 0.125, -0.125, 0.125, -0.125, -0.125, 0.000, -0.125, 0.250, -0.125, 0.125, 0.125, 0.125, 0.000, 0.125, 0.000, 0.125, 0.000, 0.125, 0.000, -0.125, -0.125, 0.125, 0.125, 0.000, -0.125, 0.000, 0.125, 0.000, -0.125, -0.125, 0.000, -0.125, -0.250, 0.000, -0.250, 0.000, 0.125, 0.000, 0.125, 0.000, -0.125, 0.125, 0.125, -0.125, -0.125, -0.125, -0.125, -0.125, 0.000, 0.000, -0.125, 0.000, 0.125, 0.125, -0.125, -0.250, -0.125, -0.125, 0.000, -0.125, 0.000, -0.125, -0.125, 0.125, 0.125, 0.125, -0.125, 0.250, -0.125, 0.125, 0.000, -0.125, 0.000, -0.125, -0.125, 0.125, -0.250, 0.000, -0.250, -0.125, 0.000, -0.125, -0.125, 0.000, -0.250, -0.250, -0.125, -0.125, 0.125, -0.125, -0.250, 0.125, 0.000, 0.250, 0.125, -0.125, 0.000, 0.250, 0.000, 0.000, -0.125, 0.250, 0.000, 0.125, 0.000, 0.000, 0.000, 0.125, 0.125, 0.250, 0.000, -0.125, -0.125, 0.125, -0.250, 0.000, 0.250, 0.000, 0.000, 0.000, 0.125, -0.125, 0.125, 0.125, 0.000, 0.375, 0.000, -0.125, 0.250, 0.000, -0.125, -0.125, 0.125, 0.000, -0.250, 0.250, 0.000, 0.000, -0.125, 0.250, 0.000, 0.250, 0.250, -0.250, 0.000, 0.000, 0.000, -0.250, 0.125, 0.000, 0.000, 0.000, 0.000, 0.125, 0.000, 0.000, -0.125, -0.125, 0.000, -0.250, 0.000, 0.000, 0.000, -0.125, -0.125, 0.000, -0.250, 0.125, 0.000, 0.125, -0.250, -0.125, 0.125, 0.000, -0.125, -0.250, 0.250, -0.250, 0.125, -0.250, -0.125, 0.125, 0.125, 0.125, -0.125, 0.125, -0.125, -0.125, -0.125, -0.250, 0.125, 0.000, 0.125, 0.125, 0.125, -0.125, -0.125, -0.125, -0.125, 0.000, 0.000, 0.125, 0.000, 0.125, -0.125, 0.000, 0.000, 0.125, 0.125, 0.000, 0.000, -0.125, 0.000, -0.125, 0.000, -0.125, -0.125, 0.000, -0.125, 0.000, -0.125, -0.250, 0.125, -0.250, 0.000, 0.125, 0.125, 0.125, 0.000, 0.000, 0.000, 0.000, 0.000, 0.000, -0.125, -0.125, 0.000, 0.125, -0.125, 0.125, -0.125, 0.125, 0.125, 0.125, 0.000, 0.000, 0.000, 0.000, 0.000, -0.125, -0.125, 0.125, -0.125, 0.125, 0.000, -0.125, 0.000, -0.125, 0.000, 0.000, 0.000, -0.125, 0.125, -0.250, 0.125, 0.125, -0.125, 0.000, -0.125, -0.250, -0.125, 0.125, -0.250, -0.125, 0.125, 0.125, 0.000, -0.250, -0.250, 0.000, 0.125, 0.125, -0.125, -0.250, 0.000, -0.125, 0.000, -0.125, -0.125, -0.250, 0.125, 0.125, 0.000, 0.125, 0.000, -0.125, -0.125, 0.000, 0.000, 0.125, -0.250, 0.125, 0.000, -0.125, -0.125, -0.250, 0.000, 0.125, 0.000, 0.125, 0.000, 0.000, 0.125, -0.125, -0.125, 0.125, -0.250, 0.000, 0.125, 0.250, -0.250, 0.000, 0.000, 0.000, -0.125, 0.000, 0.000, 0.000, -0.375, 0.000, -0.125, 0.000, 0.125, 0.125, 0.000, 0.125, 0.000, 0.125, -0.125, 0.000, 0.000, 0.000, -0.125, 0.250, -0.250, -0.125, -0.250, 0.000, -0.125, 0.125, 0.000, 0.125, 0.000, 0.000, -0.250, 0.000, 0.000, -0.125, 0.125, 0.125, 0.125, -0.125, 0.125, 0.000, 0.000, 0.375, 0.000, 0.250, -0.125, 0.000, 0.000, -0.125, -0.250, -0.125, -0.125, 0.250, -0.125, -0.250, 0.000, 0.000, -0.250, 0.375, 0.125, 0.125, 0.125, -0.125, -0.125, 0.125, -0.125, -0.125, -0.125, 0.125, -0.125, -0.125, 0.125, 0.125, 0.000, 0.250, 0.250, 0.250, 0.000, 0.250, -0.125, -0.125, -0.125, 0.125, -0.250, 0.250, 0.125, 0.000, 0.125, -0.250, 0.000, 0.125, -0.125, 0.000, 0.000, -0.125, 0.125, 0.125, -0.250, 0.125, 0.125, 0.000, 0.000, 0.000, 0.125, 0.000, -0.125, 0.000, -0.125, -0.125, 0.125, 0.125, 0.125, -0.125, 0.000, 0.000, 0.125, 0.000, -0.125, 0.250, -0.125, 0.125, 0.125, -0.125, 0.000, -0.125, -0.125, 0.250, -0.250, -0.250, 0.000, 0.000, 0.250, -0.375, -0.125, 0.000, 0.125, 0.250, 0.000, -0.125, 0.125, 0.000, 0.125, 0.125, 0.000, -0.125, 0.250, 0.000, 0.125, 0.125, 0.000, 0.000, 0.000, 0.250, -0.125, -0.125, 0.000, 0.000, 0.125, 0.125, -0.125, -0.250, 0.125, 0.000, 0.125, -0.250, 0.125, 0.000, -0.125, 0.250, 0.000, 0.000, 0.125, 0.125, 0.125, 0.125, 0.000, 0.000, 0.000, 0.125, 0.125, -0.250, 0.125, 0.250, -0.375, -0.125, -0.250, -0.125, 0.125, -0.125, 0.125, -0.125, 0.000, -0.250, 0.125, 0.125, 0.000, -0.125, 0.125, 0.125, -0.125, 0.250, -0.125, -0.250, 0.000, 0.000, 0.000, -0.125, -0.125, -0.125, 0.125, 0.000, -0.125, -0.125, -0.250, 0.250, 0.000, -0.125, -0.125, 0.000, 0.000, -0.125, 0.000, 0.125, 0.000, -0.125, -0.250, 0.125, 0.125, 0.000, -0.125, 0.250, 0.250, 0.000, -0.125, 0.125, 0.000, -0.250, -0.125, 0.125, 0.125, -0.250, -0.125, 0.000, 0.125, -0.375, -0.250, 0.125, 0.125, 0.000, 0.000, 0.250, 0.125, -0.375, 0.000, 0.250, -0.125, -0.250, 0.000, 0.125, 0.125, 0.125, 0.000, 0.000, -0.125, 0.000, -0.250, 0.000, 0.125, -0.250, 0.000, 0.250, 0.125, -0.125, -0.125, 0.125, 0.125, 0.125, 0.000, 0.125, 0.250, -0.125, 0.000, 0.125, 0.125, -0.250, 0.000, 0.125, -0.125, -0.125, -0.125, 0.000, -0.125, 0.125, -0.125, 0.250, 0.125, -0.250, 0.125, 0.125, 0.000, -0.125, -0.125, -0.125, -0.125, 0.125, -0.125, 0.000, -0.125, 0.125, -0.125, 0.125, 0.000, -0.125, -0.125, 0.250, 0.250, -0.125, -0.125, 0.000, 0.000, 0.000, 0.000, 0.000, 0.000, -0.250, -0.125, -0.250, -0.125, 0.000, 0.000, -0.125, 0.250, 0.125, -0.125, 0.000, -0.125, 0.000, 0.000, 0.125, 0.125, 0.125, 0.125, -0.375, 0.125, 0.250, -0.125, 0.125, 0.250, 0.125, 0.000, -0.125, -0.250, -0.125, 0.000, 0.000, 0.000, 0.125, 0.250, 0.000, -0.250, 0.000, 0.000, -0.125, 0.000, 0.250, 0.250, -0.125, -0.375, 0.000, 0.000, 0.125, 0.000, -0.125, 0.000, -0.250, -0.125, 0.250, 0.125, 0.125, -0.125, 0.125, 0.125, -0.250, -0.250, -0.125, 0.125, 0.000, 0.000, 0.125, 0.250, -0.250, -0.250, 0.250, 0.000, -0.125, 0.000, 0.000, 0.000, 0.000, -0.125, -0.375, 0.125, 0.000, 0.000, -0.125, 0.000, -0.125, -0.250, 0.125, 0.125, -0.125, 0.000, -0.125, 0.250, 0.000, 0.125, -0.375, -0.250, 0.125, 0.125, 0.125, 0.000, 0.125, 0.000, 0.250, -0.125, -0.375, 0.125, 0.125, -0.125, 0.125, 0.000, -0.250, 0.000, 0.000, 0.000, 0.250, 0.250, 0.125, 0.000, -0.125, 0.000, -0.125, -0.125, 0.125, 0.125, 0.000, 0.125, 0.125, -0.125, 0.000, -0.125, -0.125, -0.125, 0.250, 0.000, 0.125, 0.000, -0.125, -0.125, 0.125, 0.000, 0.000, 0.000, 0.125, -0.250, -0.125, 0.000, 0.125, -0.125, -0.125, 0.000, 0.000, -0.125, 0.000, -0.250, 0.250, 0.000, -0.125, 0.375, 0.000, -0.250, -0.250, 0.000, -0.125, -0.125, 0.000, 0.000, -0.125, 0.125, -0.125, -0.125, 0.125, 0.125, -0.125, 0.375, 0.125, 0.000, -0.125, 0.125, 0.000, 0.000, -0.125, 0.000, -0.250, 0.000, 0.125, -0.250, 0.125, 0.000, 0.250, 0.250, 0.125, -0.125, -0.125, -0.125, 0.125, 0.000, 0.000, -0.125, -0.125, -0.125, 0.250, -0.125, 0.125, 0.125, -0.125, 0.000, 0.125, -0.125, 0.000, 0.000, 0.000, -0.125, -0.125, 0.125, 0.125, 0.125, 0.000, 0.125, 0.250, 0.250, -0.250, -0.125, 0.125, 0.000, 0.000, 0.125, 0.125, 0.125, 0.125, 0.000, -0.125, 0.125, 0.000, -0.250, -0.250, 0.125, 0.125, 0.000, 0.000, 0.000, 0.000, -0.125, 0.125, 0.250, 0.250, 0.125, 0.000, 0.000, 0.125, -0.250, -0.125, -0.250, 0.000, 0.000, -0.250, 0.000, 0.000, -0.250, -0.250, 0.000, 0.250, 0.250, 0.125, 0.000, 0.250, -0.250, -0.125, -0.250, 0.000, 0.000, -0.125, -0.375, 0.125, -0.125, -0.125, 0.250, 0.250, 0.125, -0.250, -0.125, -0.125, 0.125, 0.000, -0.125, -0.125, 0.250, 0.000, 0.000, 0.250, -0.125, 0.000, 0.125, 0.000, 0.125, 0.000, 0.125, 0.000, -0.250, 0.125, -0.125, 0.000, 0.250, 0.125, 0.125, 0.250, -0.125, 0.125, -0.125, 0.250, -0.125, -0.125, 0.000, 0.000, -0.250, 0.125, 0.000, 0.250, 0.125, 0.125, -0.250, -0.250, 0.125, -0.250, 0.125, 0.000, -0.125, -0.125, 0.250, 0.125, 0.250, 0.125, -0.250, 0.250, 0.125, 0.125, 0.125, -0.125, 0.125, 0.250, 0.000, 0.000, 0.000, -0.125, 0.000, 0.125, 0.000, -0.125, 0.000, -0.125, 0.000, -0.125, 0.000, 0.125, -0.125, 0.000, 0.125, -0.125, -0.125, 0.125, -0.125, -0.125, 0.125, 0.000, 0.000, 0.125, 0.000, 0.125, -0.125, -0.125, -0.250, 0.000, 0.125, 0.125, -0.125, -0.125, -0.250, 0.125, -0.125, -0.250, -0.125, -0.125, 0.125, -0.250, -0.125, -0.125, -0.125, 0.125, 0.125, -0.250, 0.125, -0.125, -0.125, -0.250, -0.250, -0.125, -0.250, 0.000, -0.125, 0.125, 0.125, 0.125, -0.125, 0.000, 0.125, 0.125, 0.000, 0.000, -0.125, -0.125, 0.000, -0.125, -0.125, 0.125, 0.000, 0.125, -0.125, 0.125, -0.125, -0.125, 0.125, 0.125, 0.125, -0.250, 0.125, -0.125, 0.000, -0.125, 0.000, 0.125, 0.125, 0.000, -0.125, -0.125, 0.000, 0.125, -0.125, 0.125, 0.000, 0.125, -0.125, 0.125, 0.000, -0.250, -0.125, -0.125, 0.125, 0.125, -0.125, 0.000, 0.000, -0.125, 0.000, 0.000, -0.125, -0.125, 0.000, 0.000, 0.125, 0.000, 0.000, -0.125, 0.000, -0.250, -0.125, 0.125, 0.125, 0.000, 0.250, -0.250, -0.250, 0.125, 0.250, 0.000, -0.125, 0.000, 0.125, 0.125, 0.000, -0.375, 0.000, 0.000, 0.125, 0.000, 0.000, -0.125, -0.250, 0.125, 0.250, 0.125, -0.125, 0.000, 0.000, 0.125, -0.125, 0.000, 0.000, 0.125, -0.250, 0.000, 0.000, -0.125, -0.250, 0.125, 0.250, 0.000, -0.125, 0.125, 0.000, 0.000, -0.250, 0.000, 0.000, 0.125, 0.000, -0.125, 0.000, 0.000, 0.000, 0.125, 0.375, 0.125, 0.250, 0.125, 0.125, 0.125, 0.125, 0.000, -0.125, 0.000, 0.000, -0.125, 0.125, 0.000, 0.125, 0.000, 0.250, -0.250, -0.250, -0.125, 0.125, 0.125, 0.000, -0.250, 0.125, 0.000, 0.000, 0.000, -0.125, 0.250, -0.125, 0.125, 0.125, -0.125, -0.125, 0.250, -0.250, 0.000, 0.000, -0.125, 0.000, -0.125, 0.250, -0.125, 0.000, -0.125, 0.000, -0.250, -0.125, 0.000, 0.125, 0.000, 0.000, -0.125, -0.125, 0.125, 0.125, 0.000, 0.125, -0.125, 0.000, 0.000, 0.000, -0.125, 0.250, 0.125, 0.250, -0.125, -0.125, -0.125, 0.000, 0.250, 0.125, 0.000, -0.125, 0.125, 0.125, 0.000, 0.125, -0.250, 0.125, -0.125, 0.000, -0.125, 0.125, 0.000, -0.125, 0.250, 0.000, 0.125, 0.125, 0.000, 0.125, 0.125, -0.125, -0.125, 0.000, -0.125, 0.000, -0.125, 0.125, -0.125, 0.125, 0.000, 0.125, -0.125, 0.000, 0.125, 0.250, -0.125, -0.125, -0.125, 0.125, 0.000, 0.000, 0.000, 0.250, -0.125, -0.125, 0.125, -0.125, 0.125, -0.125, 0.125, 0.000, -0.125, 0.000, -0.125, 0.000, 0.125, -0.125, 0.000, -0.125, 0.000, 0.000, 0.000, 0.125, -0.125, 0.000, 0.000, -0.125, 0.125, 0.125, 0.125, 0.125, 0.000, -0.125, 0.125, -0.250, 0.125, 0.125, 0.000, 0.125, 0.125, -0.125, -0.125, 0.125, 0.000, -0.375, 0.250, 0.000, 0.000, 0.000, 0.000, 0.000, -0.125, 0.125, -0.250, -0.250, -0.250, 0.125, -0.125, -0.125, 0.000, -0.250, 0.250, -0.125, 0.250, -0.125, -0.125, -0.125, 0.500, 0.125, 0.000, 0.000, 0.125, 0.250, -0.250, -0.250, 0.250, -0.125, 0.375, 0.000, 0.125, -0.125, 0.000, 0.125, 0.250, 0.125, -0.250, -0.125, 0.125, 0.000, 0.125, -0.125, 0.000, 0.000, 0.125, -0.250, 0.250, -0.375, 0.000, 0.000, 0.375, 0.000, 0.000, 0.000, 0.250, 0.000, 0.000, -0.125, -0.125, 0.125, 0.125, 0.000, 0.125, -0.125, 0.250, 0.000, 0.250, 0.000, 0.000, -0.250, -0.125, 0.000, 0.250, 0.000, 0.125, 0.125, 0.250, -0.125, 0.375, 0.000, 0.000, -0.125, 0.125, -0.250, 0.125, 0.125, 0.125, 0.000, 0.000, 0.125, -0.125, 0.250, -0.125, -0.125, 0.000, -0.125, -0.250, -0.125, -0.125, 0.000, 0.000, -0.125, -0.125, 0.125, -0.125, 0.000, -0.125, 0.000, 0.000, -0.125, 0.250, 0.000, 0.000, 0.125, 0.125, -0.125, -0.125, 0.125, -0.125, 0.125, 0.125, -0.250, 0.125, 0.000, -0.125, -0.250, 0.250, 0.125, -0.125, 0.000, -0.125, -0.125, 0.125, 0.000, -0.125, 0.000, 0.000, 0.000, 0.000, 0.125, 0.000, -0.125, 0.375, 0.375, 0.000, 0.000, 0.000, 0.000, -0.125, 0.125, 0.125, 0.000, 0.125, 0.000, -0.125, 0.125, 0.125, -0.125, 0.125, 0.125, -0.125, -0.125, 0.000, -0.250, 0.125, -0.125, 0.000, 0.125, 0.250, 0.000, -0.125, 0.000, 0.000, -0.375, 0.250, 0.000, -0.250, 0.125, -0.125, 0.000, 0.000, -0.125, 0.125, -0.125, 0.250, 0.125, 0.250, 0.000, -0.125, 0.000, 0.125, 0.375, 0.125, 0.000, 0.125, 0.000, 0.125, 0.125, 0.000, 0.000, 0.250, -0.125, 0.000, 0.125, -0.125, 0.000, 0.000, -0.125, -0.250, -0.125, 0.125, 0.000, 0.125, -0.125, -0.125, -0.125, 0.125, -0.125, 0.125, -0.125, 0.000, 0.000, 0.000, 0.125, -0.125, -0.250, 0.125, 0.000, -0.125, 0.125, -0.125, 0.000, 0.000, -0.125, 0.125, -0.125, -0.125, -0.125, -0.125, 0.000, 0.125, -0.125, 0.125, 0.000, 0.000, -0.125, 0.000, 0.000, -0.125, -0.125, 0.000, 0.125, 0.000, -0.125, -0.125, -0.250, 0.125, 0.000, 0.000, 0.125, -0.125, 0.000, -0.125, 0.000, -0.125, -0.125, -0.125, 0.000, -0.250, -0.250, 0.125, 0.125, 0.000, 0.125, -0.125, -0.125, 0.000, -0.250, -0.125, 0.000, -0.125, 0.000, 0.000, 0.125, 0.000, 0.125, 0.000, 0.000, -0.125, 0.000, 0.125, 0.125, -0.125, 0.125, -0.125, 0.000, -0.125, 0.125, -0.125, -0.125, 0.000, -0.125, -0.125, 0.125, -0.125, -0.125, 0.000, 0.125, -0.125, -0.250, 0.125, -0.125, 0.125, 0.000, -0.125, 0.125, -0.125, 0.000, -0.125, -0.125, 0.125, -0.125, 0.000, 0.125, -0.125, 0.000, 0.000, 0.000, 0.125, -0.125, 0.125, -0.125, 0.125, 0.125, -0.125, 0.000, 0.125, -0.125, 0.000, -0.125, 0.125, -0.250, 0.125, 0.000, 0.125, -0.125, 0.125, -0.375, 0.250, -0.250, -0.125, -0.125, 0.125, -0.125, 0.125, 0.250, 0.125, -0.250, -0.125, 0.125, 0.125, -0.125, -0.250, 0.000, 0.250, -0.125, 0.000, -0.375, 0.375, 0.000, 0.125, -0.125, -0.125, -0.375, 0.000, 0.125, -0.250, 0.125, -0.125, -0.250, 0.250, -0.125, -0.250, 0.000, 0.250, 0.000, 0.250, 0.125, 0.125, -0.250, -0.125, 0.000, 0.125, 0.125, -0.125, -0.125, 0.000, -0.250, 0.125, -0.125, 0.250, 0.250, 0.250, 0.125, -0.250, 0.000, 0.000, 0.250, 0.000, 0.000, -0.125, 0.000, 0.125, -0.125, 0.000, -0.250, 0.125, 0.125, 0.000, -0.125, -0.125, 0.125, -0.250, 0.250, 0.000, -0.125, 0.000, 0.375, 0.125, 0.125, 0.000, 0.250, 0.000, 0.000, 0.000, -0.125, 0.125, 0.000, 0.125, -0.250, 0.125, -0.125, -0.375, 0.000, -0.125, -0.125, 0.000, 0.125, 0.000, 0.125, 0.000, 0.125, 0.125, -0.250, 0.000, -0.125, 0.125, 0.125, -0.125, 0.125, 0.125, 0.000, 0.125, 0.250, 0.000, -0.125, -0.250, 0.000, 0.000, 0.250, 0.250, 0.000, 0.250, 0.250, -0.250, -0.125, -0.250, 0.000, 0.250, 0.125, -0.125, -0.250, -0.125, -0.125, 0.000, 0.125, 0.000, -0.125, 0.250, -0.125, -0.250, -0.250, 0.125, 0.125, 0.250, 0.250, 0.000, 0.125, -0.125, -0.125, 0.000, 0.000, 0.000, -0.250, 0.000, 0.000, -0.125, -0.250, -0.125, 0.000, 0.000, 0.125, -0.250, 0.125, -0.250, 0.125, -0.125, 0.125, -0.125, -0.250, 0.125, 0.250, -0.375, -0.125, -0.125, 0.000, 0.000, 0.125, 0.000, -0.125, 0.125, 0.125, -0.250, 0.000, -0.125, -0.125, 0.125, 0.000, 0.250, -0.125, 0.000, 0.125, 0.125, -0.250, 0.375, 0.250, 0.000, -0.125, -0.125, -0.125, -0.250, 0.000, 0.250, 0.000, 0.000, 0.250, 0.000, -0.125, -0.125, 0.125, 0.250, 0.000, -0.250, 0.000, 0.000, 0.250, 0.125, 0.000, -0.125, 0.000, -0.125, 0.125, 0.000, -0.250, -0.125, 0.250, 0.000, 0.250, -0.250, -0.125, 0.250, -0.125, -0.250, 0.125, -0.125, 0.125, -0.125, 0.125, -0.250, 0.125, -0.125, 0.250, 0.125, 0.125, 0.000, 0.000, -0.125, 0.125, 0.125, 0.125, -0.125, 0.125, -0.250, 0.125, 0.000, -0.125, -0.125, 0.000, 0.125, -0.125, -0.375, -0.125, 0.125, 0.000, -0.250, 0.250, 0.000, 0.125, 0.000, -0.125, 0.125, -0.125, -0.125, 0.125, -0.250, 0.250, -0.125, 0.250, 0.125, -0.125, 0.125, 0.125, 0.000, 0.250, -0.250, -0.125, 0.000, 0.000, -0.250, 0.000, 0.000, -0.125, -0.375, 0.125, -0.125, -0.125, 0.000, 0.000, 0.125, -0.125, 0.000, -0.375, 0.125, 0.000, -0.125, 0.000, 0.000, 0.000, -0.125, 0.000, -0.125, 0.125, -0.125, 0.000, 0.000, 0.250, 0.125, 0.125, -0.125, -0.125, -0.250, -0.125, 0.000, 0.000, -0.125, 0.000, 0.000, 0.000, 0.125, 0.000, 0.000, 0.125, -0.125, -0.125, 0.125, 0.125, -0.125, -0.125, 0.000, 0.125, -0.125, 0.000, -0.125, 0.125, 0.125, 0.000, -0.125, 0.000, 0.000, -0.125, -0.125, -0.125, 0.125, 0.125, -0.125, 0.125, 0.000, 0.000, -0.125, 0.125, 0.000, -0.125, -0.125, -0.125, 0.125, 0.000, -0.125, 0.000, -0.125, -0.125, 0.000, 0.125, 0.125, 0.000, -0.250, 0.125, -0.125, -0.125, 0.125, 0.125, 0.125, -0.250, -0.250, -0.125, 0.000, -0.250, 0.125, -0.125, 0.250, -0.125, -0.125, 0.125, 0.000, 0.000, -0.250, 0.125, 0.125, -0.125, 0.000, 0.000, 0.125, 0.000, -0.125, -0.125, 0.000, -0.125, 0.000, 0.000, -0.125, 0.000, 0.125, 0.000, -0.125, 0.125, 0.125, -0.125, -0.250, -0.125, 0.125, 0.125, -0.125, 0.000, 0.000, 0.000, -0.125, -0.125, -0.125, -0.125, -0.125, 0.125, 0.000, 0.125, -0.375, -0.250, 0.125, -0.125, 0.125, 0.250, 0.000, 0.125, 0.125, -0.250, -0.125, 0.250, 0.125, 0.125, 0.000, 0.250, -0.125, -0.125, 0.000, -0.125, 0.000, 0.375, 0.000, -0.125, -0.125, -0.250, -0.250, 0.000, 0.000, -0.125, 0.125, 0.250, -0.500, -0.500, 0.000, 0.000, -0.125, 0.125, -0.125, -0.125, -0.125, -0.125, -0.125, -0.125, 0.250, 0.000, -0.125, 0.250, -0.375, -0.250, 0.125, -0.125, -0.125, 0.125, 0.125, -0.125, -0.250, 0.000, -0.125, 0.125, 0.000, 0.000, 0.125, 0.250, -0.250, -0.125, -0.125, 0.125, 0.125, 0.375, 0.250, 0.250, 0.000, -0.125, -0.250, -0.125, 0.125, 0.000, -0.125, 0.000, -0.125, -0.125, 0.250, 0.125, -0.250, 0.250, 0.000, 0.250, 0.125, 0.000, 0.000, 0.125, 0.125, -0.125, 0.125, 0.125, -0.125, 0.000, 0.375, 0.000, 0.125, -0.125, -0.125, 0.125, 0.125, 0.250, -0.125, 0.250, 0.250, 0.000, -0.125, 0.000, 0.000, 0.125, 0.000, 0.125, -0.125, -0.125, -0.125, 0.000, 0.000, 0.250, -0.250, -0.250, 0.125, 0.125, 0.000, -0.250, -0.125, 0.000, 0.000, 0.125, 0.000, -0.125, 0.125, 0.250, -0.125, 0.125, -0.250, -0.375, -0.125, 0.000, 0.125, 0.000, -0.250, 0.250, 0.000, 0.250, 0.125, 0.125, -0.250, 0.000, -0.250, 0.250, 0.125, 0.000, -0.125, 0.000, -0.250, 0.000, 0.000, 0.000, 0.000, 0.125, 0.125, 0.000, 0.250, 0.000, 0.125, 0.250, 0.000, -0.250, 0.000, 0.000, 0.125, -0.125, -0.125, 0.250, -0.125, -0.125, 0.000, -0.125, 0.250, 0.000, 0.000, 0.125, 0.000, 0.125, -0.125, 0.125, -0.125, -0.125, 0.000, 0.125, 0.125, -0.250, 0.000, -0.125, 0.250, 0.250, 0.250, 0.125, 0.000, 0.125, 0.000, 0.000, -0.125, -0.125, 0.000, -0.125, -0.500, -0.250, -0.125, -0.250, 0.125, 0.000, 0.125, 0.000, 0.000, 0.125, -0.125, 0.000, 0.000, 0.000, -0.125, -0.125, -0.125, -0.125, 0.000, 0.000, 0.125, -0.125, -0.125, -0.125, -0.250, 0.125, 0.000, 0.125, -0.250, -0.125, 0.000, -0.250, 0.000, -0.125, -0.125, 0.000, 0.000, -0.125, 0.125, 0.125, 0.000, 0.125, 0.000, -0.250, 0.000, 0.000, -0.125, 0.125, -0.125, 0.000, 0.000, 0.125, 0.125, -0.125, 0.125, -0.250, -0.125, -0.125, 0.125, -0.250, 0.125, 0.125, 0.125, -0.125, 0.000, 0.000, -0.125, 0.000, 0.125, 0.000, 0.000, -0.125, 0.000, 0.125, 0.125, 0.125, 0.125, 0.125, 0.000, 0.125, -0.125, -0.250, 0.125, -0.250, 0.000, 0.125, 0.125, -0.125, -0.125, 0.125, 0.000, 0.000, -0.250, -0.125, 0.125, -0.250, -0.125, 0.125, 0.125, 0.125, 0.125, -0.125, 0.125, -0.250, 0.000, 0.000, -0.125, -0.125, -0.250, 0.125, 0.000, -0.125, -0.125, 0.000, -0.125, 0.000, 0.125, 0.125, -0.125, 0.125, 0.000, 0.000, 0.000, 0.375, -0.250, 0.000, 0.000, -0.125, 0.000, -0.125, 0.000, 0.000, 0.125, 0.000, 0.000, 0.125, -0.375, 0.125, 0.250, 0.125, -0.250, 0.000, 0.000, 0.000, -0.125, 0.000, -0.125, 0.000, 0.000, 0.000, 0.000, 0.125, -0.375, -0.250, 0.375, 0.125, 0.000, -0.125, 0.125, 0.000, 0.125, 0.000, 0.000, 0.000, 0.000, 0.125, -0.125, 0.125, -0.250, 0.000, 0.125, 0.250, -0.250, 0.000, 0.000, -0.125, -0.250, 0.000, 0.000, 0.000, 0.000, 0.125, 0.125, 0.125, 0.000, 0.125, 0.000, 0.125, -0.125, -0.125, -0.125, 0.125, -0.250, 0.125, -0.125, 0.000, 0.125, 0.000, 0.125, 0.125, 0.000, 0.000, 0.000, -0.125, 0.000, -0.250, 0.000, -0.125, -0.125, 0.000, -0.125, 0.125, -0.125, 0.125, 0.250, -0.125, 0.125, 0.125, -0.125, -0.250, 0.000, -0.125, 0.125, 0.000, -0.125, -0.125, -0.250, 0.125, 0.000, 0.125, 0.000, 0.125, 0.125, 0.000, -0.125, 0.000, -0.125, -0.250, 0.000, 0.125, 0.250, 0.000, 0.125, 0.125, -0.125, -0.125, -0.250, 0.125, 0.125, -0.250, 0.000, -0.125, 0.125, -0.125, 0.250, 0.000, 0.125, 0.000, -0.250, 0.000, 0.125, 0.000, -0.125, 0.000, 0.250, 0.125, -0.250, -0.250, -0.125, 0.125, 0.125, 0.000, 0.125, 0.000, -0.125, -0.125, -0.125, 0.000, 0.125, 0.000, 0.125, 0.125, -0.125, 0.000, 0.125, 0.000, 0.250, -0.125, 0.250, -0.125, -0.125, 0.125, 0.125, -0.125, 0.000, -0.250, 0.250, -0.250, -0.250, 0.000, 0.000, 0.000, 0.250, 0.125, 0.125, 0.000, 0.125, 0.000, 0.000, -0.125, -0.250, -0.250, 0.000, 0.125, 0.000, 0.125, 0.000, 0.250, 0.125, 0.250, 0.125, 0.125, 0.250, -0.125, 0.125, -0.125, -0.250, 0.000, 0.125, -0.125, 0.000, 0.125, 0.125, 0.000, 0.000, 0.000, 0.250, 0.125, 0.250, -0.125, -0.125, -0.125, 0.000, 0.125, -0.125, 0.125};

#endif

#endif
