//Numpy array shape [3, 3, 2, 8]
//Min -0.375000000000
//Max 0.375000000000
//Number of zeros 41

#ifndef W2_H_
#define W2_H_

#ifndef __SYNTHESIS__
weight2_t w2[144];
#else
weight2_t w2[144] = {0.375, -0.125, 0.000, 0.250, 0.250, -0.375, 0.125, 0.000, -0.125, 0.000, 0.125, 0.250, 0.000, -0.125, 0.000, 0.375, 0.250, 0.000, 0.000, 0.000, 0.250, -0.250, 0.125, 0.250, 0.000, 0.125, 0.000, 0.250, -0.250, -0.125, 0.125, -0.125, 0.250, 0.125, -0.375, 0.250, 0.000, -0.125, 0.000, -0.250, 0.000, 0.000, 0.250, 0.125, -0.125, -0.250, 0.250, 0.125, 0.250, -0.250, -0.250, -0.125, -0.125, 0.125, 0.000, 0.000, 0.000, 0.125, 0.000, 0.125, 0.125, 0.000, -0.125, 0.125, 0.000, -0.250, 0.000, -0.125, 0.250, 0.125, 0.000, 0.125, 0.250, 0.375, -0.125, -0.125, -0.250, 0.000, 0.000, 0.000, 0.375, -0.125, 0.125, 0.000, 0.125, 0.250, -0.125, -0.125, -0.125, 0.000, -0.125, -0.250, 0.125, -0.125, -0.375, 0.125, 0.250, 0.000, -0.125, 0.125, 0.000, 0.125, 0.125, 0.125, 0.000, 0.000, 0.000, 0.000, 0.000, -0.250, 0.250, -0.250, -0.125, -0.250, -0.250, -0.125, 0.125, -0.250, 0.000, 0.000, 0.125, 0.375, 0.250, -0.250, -0.250, -0.125, 0.375, -0.250, 0.000, 0.250, 0.000, 0.250, 0.250, 0.000, 0.125, -0.250, 0.125, -0.125, -0.125, -0.250, -0.250, 0.000, 0.250, 0.000};

#endif

#endif
