//Numpy array shape [32, 10]
//Min -1.125000000000
//Max 0.625000000000
//Number of zeros 35

#ifndef W21_H_
#define W21_H_

#ifndef __SYNTHESIS__
weight21_t w21[320];
#else
weight21_t w21[320] = {0.125, 0.125, 0.375, 0.000, 0.125, 0.375, -0.500, -0.375, 0.375, -1.125, -0.375, -0.875, 0.250, -0.125, -0.625, 0.250, 0.125, -0.125, 0.250, -0.500, 0.125, -0.625, 0.125, 0.375, -0.375, -0.875, 0.125, 0.375, -0.125, 0.250, 0.000, -0.375, 0.125, 0.250, 0.000, 0.125, -0.250, -0.375, -0.125, -0.125, 0.125, -0.625, 0.250, -0.625, 0.125, -0.750, -0.125, 0.250, 0.125, -0.125, -0.375, 0.125, -0.625, -0.625, -0.250, -0.250, -0.250, 0.250, -0.375, 0.500, 0.250, 0.000, 0.375, -0.750, 0.125, 0.250, 0.125, -0.125, 0.625, -0.750, 0.375, -0.250, 0.250, -0.875, -0.125, -0.375, -0.375, -0.375, -0.625, 0.000, 0.375, 0.250, 0.500, 0.250, -0.875, -0.750, -0.125, -0.500, -0.750, -0.250, -0.125, 0.500, -0.500, -0.125, 0.250, 0.000, 0.000, 0.000, 0.375, 0.250, -0.375, 0.000, 0.250, -0.125, -0.250, 0.125, -0.125, -0.500, 0.250, 0.250, -0.250, -0.875, 0.250, 0.125, -0.375, -0.125, 0.000, 0.125, -0.125, -0.250, -0.500, -0.125, -0.375, -0.375, 0.000, -0.250, 0.250, -0.625, -0.750, 0.250, -0.500, 0.375, -0.625, -0.750, -0.375, 0.125, -0.250, -0.250, -0.375, -0.625, 0.000, 0.000, 0.000, -0.625, -0.500, 0.125, -0.375, 0.250, -0.750, 0.125, 0.000, -0.500, -0.500, 0.375, 0.000, -0.375, 0.500, -0.125, 0.375, -0.500, -0.500, 0.125, -0.250, -0.500, 0.250, -0.250, -0.500, -0.125, 0.125, 0.250, 0.125, 0.125, -0.375, -0.500, 0.375, -0.625, -0.500, 0.250, -0.125, 0.250, -0.625, 0.250, -0.125, -0.250, 0.250, 0.375, -0.125, 0.000, 0.000, 0.250, -0.250, 0.375, 0.000, -0.750, 0.125, -0.500, -0.500, 0.500, 0.000, 0.125, 0.250, 0.125, -0.250, 0.125, 0.250, -0.125, 0.375, -0.375, -0.375, 0.000, 0.500, -0.500, 0.125, 0.125, 0.125, 0.375, -0.375, -0.125, 0.000, -0.625, -0.500, -0.125, -0.500, 0.250, 0.000, 0.125, -0.500, -0.625, -0.250, 0.500, -0.500, 0.125, -0.125, -0.375, 0.125, 0.250, -0.750, -0.250, -0.625, 0.375, 0.125, 0.250, -0.500, -0.125, 0.125, 0.250, 0.125, 0.375, -0.875, -0.250, -0.375, -0.500, 0.000, 0.375, -0.375, 0.375, -0.875, -0.750, -0.250, -0.250, -0.750, 0.000, 0.375, 0.375, 0.000, 0.250, 0.000, 0.250, -0.500, 0.250, 0.125, -0.125, 0.000, -0.125, 0.375, 0.000, 0.000, 0.250, -0.250, -0.625, 0.250, -0.875, 0.125, -0.375, -0.500, -0.375, -0.375, 0.375, -0.250, -0.500, 0.125, 0.250, 0.000, 0.250, -0.250, -0.250, 0.000, 0.250, -0.125, 0.250, 0.000, 0.250, -0.375, -0.750, -0.625, -0.125, -0.250, 0.000, 0.125, 0.250, 0.125, -0.500, -0.125, -0.250, 0.250, -0.375, 0.375, 0.000, -0.125, 0.250};

#endif

#endif
