//Numpy array shape [3, 3, 8, 16]
//Min -0.500000000000
//Max 0.375000000000
//Number of zeros 417

#ifndef W7_H_
#define W7_H_

#ifndef __SYNTHESIS__
weight7_t w7[1152];
#else
weight7_t w7[1152] = {-0.125, 0.125, -0.125, 0.000, 0.000, 0.250, 0.125, 0.000, -0.125, 0.000, -0.250, 0.125, 0.125, -0.125, 0.125, 0.000, 0.000, -0.125, -0.125, 0.125, 0.250, 0.000, 0.000, -0.125, 0.125, 0.000, 0.125, -0.125, 0.000, 0.000, 0.125, 0.000, 0.000, -0.125, 0.125, -0.125, -0.125, -0.125, 0.125, 0.000, 0.125, 0.000, 0.125, 0.000, 0.125, -0.125, 0.000, -0.125, 0.125, -0.250, 0.000, -0.125, 0.000, 0.125, 0.125, 0.125, 0.125, 0.000, 0.000, 0.000, 0.000, 0.250, 0.000, 0.000, 0.000, -0.250, 0.000, 0.000, 0.000, 0.000, 0.000, 0.375, 0.125, 0.125, 0.125, -0.125, 0.000, 0.125, 0.125, 0.125, 0.125, 0.125, -0.125, 0.125, 0.125, 0.125, 0.125, 0.125, 0.000, 0.000, 0.000, 0.000, 0.000, 0.125, 0.000, 0.125, 0.000, 0.000, -0.250, 0.125, -0.125, 0.000, 0.000, 0.000, 0.000, 0.000, 0.000, 0.125, 0.000, 0.125, 0.125, -0.125, -0.250, 0.125, 0.000, 0.250, 0.125, 0.000, 0.250, 0.250, 0.125, -0.125, -0.375, 0.250, 0.000, 0.000, -0.250, 0.000, -0.125, 0.000, 0.000, -0.125, 0.000, 0.125, -0.125, 0.000, 0.125, 0.000, -0.250, 0.000, 0.125, 0.125, 0.000, -0.250, 0.125, 0.125, 0.125, 0.250, 0.000, 0.125, 0.125, 0.000, 0.125, 0.125, 0.000, 0.125, 0.125, -0.125, 0.125, 0.000, -0.125, -0.125, 0.125, -0.125, -0.125, 0.000, 0.000, 0.000, -0.125, 0.125, 0.000, -0.125, 0.125, 0.125, 0.000, -0.125, -0.250, 0.125, 0.250, -0.125, 0.125, -0.125, 0.125, 0.000, 0.125, 0.000, 0.000, 0.125, 0.000, 0.000, 0.000, 0.000, 0.000, -0.375, -0.125, -0.125, -0.125, 0.000, -0.125, -0.250, 0.000, 0.125, 0.125, 0.000, 0.125, 0.000, 0.250, 0.125, 0.125, 0.000, 0.375, 0.125, 0.125, -0.125, 0.125, 0.125, 0.000, 0.125, -0.125, 0.125, -0.125, 0.125, 0.000, 0.000, 0.000, 0.000, 0.000, 0.000, -0.125, 0.000, 0.000, 0.000, -0.125, 0.125, -0.250, 0.125, 0.000, 0.125, 0.125, 0.000, 0.125, -0.125, 0.125, -0.125, 0.000, 0.000, 0.000, 0.000, 0.000, -0.125, 0.125, -0.125, -0.125, 0.000, 0.125, 0.000, 0.000, -0.125, 0.000, -0.125, 0.125, 0.125, -0.125, 0.125, -0.250, -0.125, -0.125, 0.000, 0.125, -0.375, 0.250, 0.375, -0.125, -0.250, -0.500, -0.250, 0.125, -0.250, 0.250, -0.125, -0.250, 0.125, -0.125, 0.000, 0.250, 0.000, 0.375, 0.125, -0.125, 0.000, 0.000, 0.000, -0.125, -0.125, 0.000, 0.125, 0.000, 0.000, -0.125, -0.125, -0.125, 0.000, -0.250, -0.125, 0.000, -0.125, 0.000, 0.125, -0.125, 0.000, -0.125, 0.000, 0.000, -0.125, 0.125, -0.125, 0.000, 0.250, -0.125, 0.000, 0.000, -0.125, -0.125, 0.125, 0.000, 0.125, -0.125, 0.125, 0.250, 0.125, -0.125, 0.000, 0.000, 0.125, 0.125, -0.250, 0.125, 0.000, 0.000, 0.125, 0.125, 0.125, 0.000, -0.250, 0.125, 0.125, 0.125, 0.000, -0.125, 0.000, -0.125, 0.000, -0.125, 0.000, 0.000, 0.000, -0.125, 0.125, 0.000, -0.125, 0.000, 0.000, 0.000, -0.125, 0.000, 0.125, 0.000, -0.125, 0.125, -0.125, 0.125, -0.125, 0.000, 0.125, -0.125, -0.125, 0.250, 0.125, 0.125, 0.125, 0.125, -0.125, 0.125, 0.125, -0.125, 0.125, -0.125, 0.125, 0.000, -0.125, -0.125, -0.250, -0.125, -0.125, 0.000, -0.125, -0.125, 0.125, 0.000, 0.000, 0.125, 0.000, -0.125, 0.125, 0.000, 0.000, 0.125, -0.125, 0.125, 0.000, 0.000, -0.125, 0.125, 0.000, 0.000, 0.125, 0.125, 0.250, 0.000, -0.250, 0.000, 0.000, 0.000, 0.125, 0.375, 0.000, 0.250, -0.125, 0.125, 0.000, 0.000, 0.375, -0.250, -0.125, 0.125, 0.000, 0.125, 0.000, -0.125, 0.125, 0.125, 0.000, -0.125, -0.125, 0.125, 0.125, -0.125, -0.125, -0.125, 0.000, 0.125, 0.000, 0.000, 0.125, -0.125, -0.125, 0.125, 0.125, -0.125, 0.000, 0.125, 0.125, 0.000, -0.125, 0.250, 0.000, 0.000, 0.000, 0.125, -0.125, 0.125, 0.000, 0.125, 0.000, 0.000, 0.000, 0.125, 0.000, 0.000, -0.125, -0.250, -0.125, 0.375, -0.125, -0.125, 0.000, 0.250, -0.125, -0.125, -0.250, 0.125, 0.000, -0.125, 0.000, 0.125, -0.125, -0.125, -0.125, 0.375, -0.125, -0.250, 0.000, 0.000, 0.000, -0.250, 0.125, 0.000, 0.000, 0.125, 0.125, -0.125, 0.000, -0.125, -0.125, 0.000, 0.125, 0.250, 0.125, 0.125, 0.000, -0.125, 0.125, -0.125, 0.000, 0.125, 0.000, 0.000, 0.000, 0.000, -0.125, 0.125, 0.000, 0.000, 0.000, 0.125, -0.125, 0.125, 0.125, -0.125, -0.125, 0.000, 0.000, -0.125, 0.125, 0.000, 0.125, 0.000, 0.125, 0.125, 0.000, 0.000, 0.000, -0.125, 0.000, 0.125, -0.250, -0.125, 0.125, 0.000, -0.125, -0.250, 0.000, 0.000, -0.125, 0.000, -0.125, -0.250, 0.000, -0.250, -0.125, -0.125, -0.250, 0.000, -0.250, -0.125, -0.125, -0.125, -0.125, 0.000, 0.000, -0.125, 0.000, 0.000, 0.125, 0.125, 0.125, 0.125, 0.000, 0.000, 0.000, 0.000, -0.125, 0.125, 0.125, 0.000, 0.000, 0.125, 0.125, 0.000, 0.000, 0.125, -0.125, 0.125, 0.125, -0.250, 0.125, 0.000, 0.125, 0.250, 0.000, -0.125, 0.000, -0.125, -0.125, 0.000, -0.125, 0.375, -0.125, -0.125, 0.000, -0.125, -0.125, 0.000, 0.125, -0.125, 0.000, 0.000, 0.250, 0.000, 0.125, 0.000, -0.250, -0.125, 0.125, 0.250, 0.125, 0.125, 0.125, -0.125, 0.000, 0.125, -0.125, 0.375, 0.125, 0.250, 0.125, -0.250, -0.125, 0.000, -0.125, 0.000, 0.000, -0.125, -0.250, -0.125, 0.000, 0.125, -0.125, 0.250, 0.000, 0.125, -0.125, -0.250, -0.125, 0.000, 0.000, 0.000, -0.125, 0.000, -0.125, -0.125, 0.125, 0.125, -0.125, 0.000, 0.000, 0.250, 0.000, -0.125, -0.125, 0.000, 0.000, -0.125, 0.125, 0.000, 0.125, -0.125, 0.000, 0.000, 0.000, 0.000, -0.125, 0.000, 0.000, 0.000, -0.125, 0.250, 0.125, 0.000, 0.000, 0.125, 0.000, 0.125, 0.250, 0.250, -0.125, -0.250, 0.125, 0.125, 0.000, 0.375, -0.250, 0.000, 0.125, -0.125, 0.000, -0.125, 0.125, 0.250, -0.125, 0.000, -0.250, 0.000, 0.000, -0.125, -0.125, 0.125, -0.125, 0.000, 0.000, 0.000, 0.000, 0.000, 0.125, 0.250, -0.125, 0.250, -0.125, -0.125, 0.125, -0.125, 0.125, 0.000, -0.125, -0.125, 0.000, 0.000, 0.000, 0.000, 0.000, 0.000, 0.000, 0.125, -0.125, 0.125, 0.000, 0.125, 0.125, 0.000, 0.125, 0.125, 0.000, 0.000, 0.000, 0.000, 0.000, -0.125, 0.000, 0.000, 0.000, -0.125, 0.000, 0.125, -0.125, -0.125, 0.250, -0.125, 0.000, 0.125, -0.125, 0.000, 0.000, 0.000, -0.125, -0.250, 0.125, -0.125, -0.125, 0.000, -0.125, 0.000, -0.125, -0.250, -0.125, 0.000, -0.125, -0.125, -0.125, -0.125, 0.000, -0.250, -0.125, 0.125, 0.000, -0.125, -0.125, 0.000, -0.125, -0.375, -0.125, 0.125, 0.000, 0.000, 0.000, 0.250, 0.000, 0.000, -0.125, 0.000, 0.000, 0.125, -0.125, 0.000, -0.125, 0.000, 0.000, 0.125, 0.000, -0.125, 0.125, -0.125, 0.125, -0.250, 0.125, -0.125, -0.125, 0.000, -0.125, 0.125, 0.000, 0.000, -0.125, 0.000, 0.125, -0.125, -0.125, -0.125, 0.000, 0.000, -0.125, 0.125, 0.250, 0.125, 0.125, 0.000, -0.375, -0.125, 0.000, 0.125, -0.125, 0.000, 0.000, -0.375, 0.000, 0.000, 0.000, 0.000, 0.125, 0.125, 0.125, 0.000, 0.000, 0.000, -0.125, -0.125, 0.250, 0.000, 0.000, 0.125, -0.125, 0.125, -0.125, 0.000, 0.000, -0.125, -0.125, 0.125, 0.125, 0.125, -0.125, 0.000, 0.000, 0.125, -0.125, 0.000, -0.125, -0.250, 0.125, 0.125, 0.000, 0.125, 0.000, 0.000, -0.125, 0.000, 0.125, -0.125, -0.125, 0.125, -0.125, -0.125, -0.125, 0.000, 0.000, 0.125, 0.250, 0.000, 0.125, 0.000, -0.125, -0.125, 0.000, 0.000, -0.125, -0.125, 0.125, 0.250, -0.250, 0.125, 0.000, -0.125, -0.125, 0.000, -0.125, 0.125, 0.125, -0.125, 0.000, 0.000, 0.000, 0.125, 0.125, 0.000, 0.000, -0.125, 0.000, 0.000, 0.250, 0.000, 0.125, 0.125, -0.125, 0.000, -0.125, -0.125, 0.000, 0.000, 0.000, -0.125, 0.000, 0.125, -0.125, 0.000, 0.000, 0.250, 0.000, -0.125, 0.000, 0.000, 0.000, 0.000, -0.125, 0.000, -0.125, -0.125, 0.125, 0.250, 0.000, 0.125, -0.125, 0.250, 0.000, -0.125, 0.125, -0.125, 0.250, -0.125, 0.000, 0.000, 0.000, -0.250, -0.375, 0.125, 0.125, -0.250, 0.000, 0.125, -0.125, -0.250, 0.000, 0.000, 0.000, -0.125, 0.000, 0.125, 0.000, -0.250, -0.375, 0.125, 0.000, -0.125, -0.125, 0.000, 0.000, 0.125, 0.125, 0.125, 0.125, -0.125, -0.250, 0.000, -0.250, 0.125, 0.125, 0.000, 0.125, 0.125, 0.125, 0.125, -0.125, -0.125, 0.000, 0.000, 0.000, -0.250, -0.250, -0.125, 0.125, -0.125, 0.125, -0.125, 0.000, -0.125, -0.125, 0.000, -0.125, -0.125, 0.250, 0.125, 0.125, -0.125, 0.125, 0.125, -0.125, 0.000, 0.125, -0.125, -0.125, -0.125, -0.125, 0.000, -0.125, 0.125, -0.250, -0.250, 0.125, 0.125, -0.250, 0.125, -0.125, 0.125, 0.000, 0.000, 0.125, 0.125, 0.125, 0.125, 0.000, 0.000, 0.125, -0.125, -0.125, 0.000, 0.000, 0.000, 0.000, 0.125, -0.125, 0.125, -0.250, 0.000, -0.125, -0.125, 0.000, 0.125, 0.000, 0.125, 0.250, 0.125, 0.125, -0.250, 0.000, 0.000, -0.125, -0.125, -0.125, 0.125, 0.000, -0.125, 0.125, -0.125, -0.125, 0.000, 0.000, 0.125, 0.000, 0.000, -0.125, 0.000, -0.125, -0.125, -0.125, 0.125, 0.000, 0.125, -0.125, 0.125, 0.000, 0.125, 0.000, 0.125, -0.250, 0.000, 0.000, -0.500, 0.000, 0.125, 0.000, 0.000, 0.000, 0.125, 0.000, -0.375, 0.000, 0.125, -0.125, 0.250, -0.125, 0.125, 0.125, -0.250, 0.000};

#endif

#endif
